<?xml version="1.0"?>
<opencv_storage>
<opencv_ml_svm>
  <format>3</format>
  <svmType>C_SVC</svmType>
  <kernel>
    <type>LINEAR</type></kernel>
  <C>1.</C>
  <term_criteria><iterations>1000</iterations></term_criteria>
  <var_count>4356</var_count>
  <class_count>9</class_count>
  <class_labels type_id="opencv-matrix">
    <rows>9</rows>
    <cols>1</cols>
    <dt>i</dt>
    <data>
      0 1 2 3 4 5 6 7 8</data></class_labels>
  <sv_total>36</sv_total>
  <support_vectors>
    <_>
      -2.89997668e-03 -1.28960516e-03 -3.73269687e-03 0. -6.07594708e-03
      0. -5.11269318e-03 -1.70857611e-03 -2.89997668e-03 -5.90767479e-03
      -2.67606368e-03 -1.28931308e-03 0. 1.56352331e-03 0.
      -5.90971205e-03 -3.95979872e-03 -5.90767479e-03 -4.91515594e-03
      -7.50972031e-05 -2.24719479e-04 0. -8.90937343e-04 0.
      -6.10101153e-04 -2.03885604e-04 -4.91515594e-03 -1.59291718e-02
      1.60955213e-04 4.81632625e-04 0. 6.29033148e-03 0. -1.01683522e-03
      -3.39809339e-04 -1.59291718e-02 -6.94613392e-03 -2.58916663e-03
      -2.50083092e-03 0. -2.34273286e-03 0. -7.41124479e-03
      -3.03938636e-03 -6.94613392e-03 0. 9.84587008e-04 2.94624851e-03
      0. 8.17477517e-03 0. 0. 0. 0. -1.08361086e-02 9.54980860e-05
      2.85759423e-04 0. 2.31946050e-03 0. -4.64421755e-04
      -1.55201982e-04 -1.08361086e-02 -6.66842842e-03 -2.04830058e-03
      -5.56113617e-03 0. 5.33413840e-03 0. 0. 0. -6.66842842e-03 0. 0.
      0. 0. 1.64411459e-02 0. 0. 0. 0. -2.33206447e-04 0. 0. 0.
      1.78549590e-03 0. -2.45305448e-04 -2.45305448e-04 -2.33206447e-04
      -9.15578473e-03 -1.80416019e-03 -5.39871445e-03 0. 3.71750654e-03
      0. -3.67052923e-03 -1.22662645e-03 -9.15578473e-03 -1.87839381e-02
      -8.51581525e-03 -1.24664903e-02 0. -9.51350853e-03 0.
      -5.47241233e-03 -2.04437762e-03 -1.87839381e-02 -2.28958088e-04
      -8.40342604e-04 -2.51461565e-03 0. -1.31054118e-03 0.
      -2.28958088e-04 -8.28112970e-05 -2.28958088e-04 -1.77762541e-03
      -3.45819257e-03 -5.42690651e-03 0. -5.43178292e-03 0.
      -9.31317481e-05 -3.11230688e-05 -1.77762541e-03 -1.41149079e-02
      -3.05746985e-03 -5.42690651e-03 0. -1.07303038e-02 0.
      -6.96276897e-04 -2.32683509e-04 -1.41149079e-02 -1.04201334e-02
      -9.80363321e-03 -1.19086914e-02 0. 7.18719748e-05 0.
      -6.48178486e-03 -2.91988486e-03 -1.04201334e-02 -1.58811989e-03
      -1.39106298e-03 -4.16257279e-03 0. -2.90569919e-03 0.
      -2.43470585e-03 -8.13637977e-04 -1.58811989e-03 -8.85515194e-03
      5.70046424e-04 1.70579704e-03 0. 1.88435428e-03 0. -8.09363741e-03
      -8.09363741e-03 -8.85515194e-03 -5.75726992e-03 -4.35322337e-03
      -9.06684436e-03 0. -2.95208511e-03 0. -5.70525043e-03
      -3.14666750e-03 -5.75726992e-03 -5.59070613e-03 -4.67552803e-03
      -4.06498276e-03 0. 4.76931920e-03 0. -4.49195970e-03
      -1.50113413e-03 -5.59070613e-03 -9.83619131e-03 2.68678879e-04
      3.01301014e-03 0. 6.43373933e-03 0. -4.10530437e-03
      -1.37192593e-03 -9.83619131e-03 -1.31075652e-02 -1.43874064e-03
      -4.30525793e-03 0. -1.53582150e-04 0. 2.22767843e-03
      7.44450546e-04 -1.31075652e-02 -4.45707422e-03 -4.36400762e-03
      -6.11089030e-03 0. 2.37798155e-03 0. -1.03466671e-04
      -3.45785811e-05 -4.45707422e-03 -7.98373669e-03 -3.42593365e-03
      -7.10896356e-03 0. -4.81060566e-03 0. -1.91587978e-03
      -1.60455704e-03 -7.98373669e-03 -1.01873679e-02 -4.28607600e-04
      -1.19832298e-03 0. -8.51684343e-03 0. 2.68944586e-03
      8.98765633e-04 -1.01873679e-02 -1.05240261e-02 -4.41175327e-03
      -1.07135633e-02 0. 1.02770119e-03 0. 3.73986154e-03 3.30072036e-03
      -1.05240261e-02 -6.95854193e-03 -1.28366984e-03 -3.84122715e-03 0.
      1.58742699e-03 0. -1.50259607e-03 -5.31502767e-04 -6.95854193e-03
      -5.46599785e-03 -1.95568427e-03 -4.94598132e-03 0. 3.76967510e-04
      0. 3.76967510e-04 6.40407321e-04 -5.46599785e-03 -1.11861378e-02
      -5.75046288e-03 -1.07494397e-02 0. 1.24073040e-03 0.
      1.61018909e-03 1.43948675e-03 -1.11861378e-02 -1.00241927e-02
      -1.05164910e-03 -3.14692967e-03 0. -2.44381069e-03 0.
      -1.00205703e-04 -3.34861215e-05 -1.00241927e-02 -5.29469922e-03
      -2.57151714e-03 -4.85920394e-03 0. -5.53565973e-04 0.
      -5.53565973e-04 3.92066053e-04 -5.29469922e-03 -2.50355806e-03
      -1.25615054e-03 -3.75887728e-03 0. -5.53565973e-04 0.
      3.22110631e-04 3.91983689e-04 -2.50355806e-03 -1.19188884e-02
      -1.20840769e-03 -3.61600728e-03 0. -8.72087840e-04 0.
      -3.36260605e-03 -1.12372520e-03 -1.19188884e-02 -1.25038624e-02
      -1.42504205e-03 -4.18894039e-03 0. -4.18894039e-03 0.
      -4.18894039e-03 -1.57757185e-03 -1.25038624e-02 -3.01274355e-03
      -1.13251514e-03 -3.38891125e-03 0. 4.79525607e-03 0.
      2.65602092e-03 8.87598842e-04 -3.01274355e-03 -3.59452213e-03
      -1.40041613e-03 -4.18894039e-03 0. -4.18894039e-03 0.
      -3.90844513e-03 -1.30613556e-03 -3.59452213e-03 -1.30007444e-02
      -8.97542981e-04 -2.68578180e-03 0. -4.88600554e-03 0.
      -4.78864741e-03 -1.60028564e-03 -1.30007444e-02 -1.30007444e-02
      -2.45378516e-03 -7.34265521e-03 0. -3.32935015e-03 0.
      -1.19573902e-02 -5.88416215e-03 -1.30007444e-02 -3.58144846e-03
      -2.61933019e-04 -7.83802301e-04 0. -3.80664691e-03 0.
      -1.74275588e-03 -5.82399778e-04 -3.58144846e-03 -6.06256677e-03
      -5.55286009e-04 -1.66162685e-03 0. -8.85403890e-04 0.
      -1.26776856e-03 -4.23666788e-04 -6.06256677e-03 -1.30924229e-02
      -6.51546242e-03 -1.19219758e-02 0. -1.15519157e-02 0.
      -1.10155093e-02 -4.09657834e-03 -1.30924229e-02 -1.08427517e-02
      -3.00037488e-03 -7.78566860e-03 0. -1.44949937e-02 0.
      4.03311616e-03 3.03109176e-03 -1.08427517e-02 -6.85463054e-03
      -1.28097180e-03 -3.83315608e-03 0. -3.46115627e-03 0.
      -8.17239168e-04 -2.73107056e-04 -6.85463054e-03 -7.28363916e-03
      -1.93090993e-04 -5.77801839e-04 0. -5.56413783e-03 0.
      4.91269631e-03 3.04357451e-03 -7.28363916e-03 -3.41803447e-04
      -1.64637488e-04 -4.92656254e-04 0. -1.89348217e-03 0.
      -1.44922538e-04 -4.84306875e-05 -3.41803447e-04 -4.03704960e-03
      -2.51245365e-04 -7.51822023e-04 0. 1.71646278e-03 0.
      -3.38464114e-03 -1.13108847e-03 -4.03704960e-03 -5.33967104e-04
      -2.74395803e-04 -8.21093738e-04 0. -3.01230536e-03 0.
      -1.01445778e-03 -3.39014834e-04 -5.33967104e-04 -5.07731782e-03
      -2.86429946e-04 1.15347351e-03 0. 1.15347351e-03 0.
      -5.07731782e-03 -3.69322626e-03 -5.07731782e-03 -3.03503987e-03
      9.53758645e-05 2.85396469e-04 0. 1.10569480e-03 0. -3.29802674e-03
      -1.10214308e-03 -3.03503987e-03 -1.16083352e-03 -1.30708108e-03
      -3.91127029e-03 0. 7.40939053e-03 0. -1.49645424e-03
      -5.00089664e-04 -1.16083352e-03 -4.74135438e-03 -2.61883222e-04
      8.26140968e-05 0. 8.26140968e-05 0. -5.19307423e-03
      -2.63653835e-03 -4.74135438e-03 -1.60323223e-03 -1.03717810e-02
      -1.23301027e-02 0. -5.33469068e-03 0. -2.49409047e-03
      -8.33482831e-04 -1.60323223e-03 -2.94447457e-03 -2.60077743e-03
      -7.58499838e-03 0. 1.26893132e-03 0. -3.82637745e-03
      -1.27870974e-03 -2.94447457e-03 -6.84250798e-03 -6.54085539e-03
      -1.71623956e-02 0. -4.43730317e-03 0. -7.57583184e-03
      -2.67184316e-03 -6.84250798e-03 -3.64003866e-03 -7.72072747e-03
      -1.36353774e-02 0. -7.50929303e-03 0. -3.91723355e-03
      -1.44920510e-03 -3.64003866e-03 -6.03825133e-03 -1.48520935e-02
      -1.72233190e-02 0. -8.04961659e-03 0. -1.04877139e-02
      -3.80706135e-03 -6.03825133e-03 -4.02985560e-03 -4.57438361e-03
      -8.11957195e-03 0. -1.07272947e-02 0. -7.63975736e-03
      -2.89997831e-03 -4.02985560e-03 -4.91259620e-03 -5.08930627e-03
      -1.00800740e-02 0. -3.05984146e-03 0. -8.18075426e-03
      -3.73794837e-03 -4.91259620e-03 -2.78962986e-03 -7.25403335e-03
      -1.27990441e-02 0. -1.67818535e-02 0. -7.26456614e-03
      -6.29738672e-03 -2.78962986e-03 -4.54469537e-03 -1.32107583e-03
      -3.95315047e-03 0. -8.68291967e-03 0. -1.09646292e-02
      -4.24978370e-03 -4.54469537e-03 -4.69097262e-03 -3.41151608e-03
      -6.60158647e-03 0. -7.75691122e-03 0. -4.69097262e-03
      -2.77096708e-03 -4.69097262e-03 -1.79100235e-03 -3.71785811e-03
      -1.95419532e-03 0. -2.32756836e-03 0. -3.07980110e-03
      -1.02921599e-03 -1.79100235e-03 -4.61018458e-03 -2.62083183e-03
      -5.72646735e-03 0. -1.97676811e-02 0. -4.70184814e-03
      -1.57127716e-03 -4.61018458e-03 -2.94186897e-03 -1.82133203e-03
      -1.91698561e-03 0. -1.23898068e-03 0. -2.38419697e-03
      -7.96757115e-04 -2.94186897e-03 -2.95419339e-03 -2.85594142e-03
      7.75551889e-04 0. 3.85278254e-03 0. -2.93992995e-03
      -9.82475700e-04 -2.95419339e-03 -5.32064587e-03 -2.68574688e-03
      -6.14260882e-03 0. -8.99401377e-04 0. -5.00904443e-03
      -2.42903433e-03 -5.32064587e-03 -6.46421127e-03 1.37150942e-04
      4.62442636e-04 0. 1.05340239e-02 0. -9.51427792e-04
      -3.17950849e-04 -6.46421127e-03 -1.04037635e-02 -2.11265069e-04
      -6.32185664e-04 0. 5.08161774e-03 0. -7.44497695e-04
      -2.48798722e-04 -1.04037635e-02 -5.09759132e-03 -2.42860359e-03
      -5.09759132e-03 0. 2.22711405e-03 0. -4.41727694e-03
      -1.47617725e-03 -5.09759132e-03 -4.90704365e-03 -1.13425427e-03
      -3.39411665e-03 0. 1.49081252e-03 0. 2.08421308e-03 1.37057458e-03
      -4.90704365e-03 -1.12560559e-02 -3.19672283e-04 -9.56581382e-04 0.
      6.38680998e-03 0. -1.52458539e-04 -5.09490928e-05 -1.12560559e-02
      -8.58191215e-03 -4.56674679e-05 -1.36654475e-04 0. 6.02566684e-03
      0. 0. 0. -8.58191215e-03 -5.32331085e-03 -2.74906983e-03
      -5.32331085e-03 0. -1.31280150e-03 0. -1.67001027e-03
      -1.47148827e-03 -5.32331085e-03 -5.26518840e-03 -1.36957027e-03
      -4.09827568e-03 0. -1.31280150e-03 0. 1.28877501e-03
      7.95613625e-04 -5.26518840e-03 -1.24250157e-02 0. 0. 0.
      3.87947448e-03 0. 3.25898500e-03 1.08909828e-03 -1.24250157e-02
      -5.93655393e-04 0. 0. 0. 4.01050923e-03 0. 4.01050923e-03
      3.71104362e-03 -5.93655393e-04 -5.84387034e-03 -1.00740942e-03
      -3.01455311e-03 0. -3.06959671e-04 0. -8.62427463e-04
      -2.88208714e-04 -5.84387034e-03 -5.84387034e-03 -1.67901546e-03
      -5.02425479e-03 0. -5.84387034e-03 0. -2.66033108e-03
      -8.89038201e-04 -5.84387034e-03 0. 0. 0. 0. 5.53691061e-03 0.
      5.53691061e-03 5.53691061e-03 0. 0. 0. 0. 0. 1.23573886e-03 0.
      5.00799739e-04 1.67358899e-04 0. -7.74896471e-03 -5.68704796e-04
      -1.70178176e-03 0. -5.39187295e-03 0. 0. 0. -7.74896471e-03
      -7.81656615e-03 -3.25618494e-05 -9.74370851e-05 0. -3.38195649e-04
      0. 0. 0. -7.81656615e-03 0. 0. 0. 0. 0. 0. 0. 0. 0.
      -4.05609462e-05 -5.42697489e-05 -1.62395154e-04 0. -3.50443355e-04
      0. -5.27219818e-05 -1.76188078e-05 -4.05609462e-05 -1.14268865e-02
      -2.22904400e-05 -6.67012428e-05 0. 7.74778775e-04 0.
      -4.53494795e-05 -1.51549993e-05 -1.14268865e-02 -9.65121319e-04
      -1.33742642e-05 -4.00207464e-05 0. -8.26639030e-03 0.
      5.15391631e-03 5.20424033e-03 -9.65121319e-04 -4.66442616e-05
      -4.53509056e-05 -1.35706781e-04 0. -2.56711413e-04 0.
      -1.11673668e-04 -3.73194089e-05 -4.66442616e-05 3.73897376e-04
      -3.59573933e-05 -1.07597974e-04 0. -1.35953110e-02 0.
      -1.47625498e-04 -4.93338630e-05 3.73897376e-04 -1.26207259e-03
      -1.42504563e-04 -4.26426355e-04 0. -4.05293657e-03 0.
      -1.43212115e-03 -4.78590984e-04 -1.26207259e-03 -6.24849228e-03
      -2.65280716e-03 -4.31173807e-03 0. 6.09638228e-04 0.
      -6.24849228e-03 -4.03572805e-03 -6.24849228e-03 -1.80296091e-04
      2.67715455e-04 8.01103713e-04 0. 2.56899325e-03 0. 0. 0.
      -1.80296091e-04 -2.12948187e-03 1.87400822e-03 5.60772559e-03 0.
      6.85813045e-03 0. 0. 0. -2.12948187e-03 -6.09328644e-03
      -2.63527012e-03 -2.82912306e-03 0. 9.29947826e-04 0.
      -6.09328644e-03 -2.67722760e-03 -6.09328644e-03 -2.94516166e-03
      -4.86230850e-03 -1.45498309e-02 0. -8.25000089e-03 0.
      -1.50391611e-03 -5.02583222e-04 -2.94516166e-03 -1.85880729e-03
      1.00638543e-03 3.01147741e-03 0. 4.44263779e-03 0. 0. 0.
      -1.85880729e-03 -1.37940003e-02 -1.10134985e-02 -1.85476951e-02 0.
      -8.45278054e-03 0. 6.86364423e-04 2.29371508e-04 -1.37940003e-02
      -5.85928140e-03 -6.34528324e-03 -1.50700537e-02 0. -9.35217086e-03
      0. -4.66092024e-03 -1.55760173e-03 -5.85928140e-03 -5.85928140e-03
      -9.30555724e-03 -1.71826612e-02 0. -1.26005039e-02 0.
      -4.15335083e-03 -1.38797925e-03 -5.85928140e-03 -9.64147691e-03
      -6.49177143e-03 -1.19011411e-02 0. -6.74122293e-03 0.
      8.48660420e-04 2.83608126e-04 -9.64147691e-03 -9.64147691e-03
      -4.88961209e-03 -1.00166304e-02 0. -6.74122293e-03 0.
      5.09196310e-04 1.70164887e-04 -9.64147691e-03 -6.61034696e-03
      -1.00125968e-02 -1.75981428e-02 0. -2.08591409e-02 0.
      -3.20250215e-03 -1.07022002e-03 -6.61034696e-03 -7.43371155e-03
      -9.93848662e-04 -2.97396956e-03 0. -6.40880549e-03 0.
      -6.20522443e-03 -2.07367702e-03 -7.43371155e-03 -1.36210369e-02
      -4.12824471e-03 -1.14102252e-02 0. -1.10991010e-02 0. 0. 0.
      -1.36210369e-02 0. 1.07642634e-04 3.22108361e-04 0. 2.93020275e-03
      0. -2.72908760e-03 -9.12013114e-04 0. -9.56741627e-03
      6.90628483e-04 2.06662435e-03 0. -1.13008870e-02 0.
      -4.77277860e-03 -1.96095812e-03 -9.56741627e-03 -1.30249681e-02
      5.57451218e-04 1.66810676e-03 0. 2.68498529e-03 0. -4.77277860e-03
      -2.02312833e-03 -1.30249681e-02 -1.84053846e-03 1.70281879e-03
      5.09548374e-03 0. -7.41693750e-03 0. -3.52075556e-03
      -1.17657473e-03 -1.84053846e-03 -4.77277860e-03 1.32937718e-03
      3.97800421e-03 0. 6.91570109e-03 0. -3.63237853e-03
      -1.21387700e-03 -4.77277860e-03 -5.42819966e-03 5.72686316e-04
      1.71369605e-03 0. 1.68392770e-02 0. -4.47810686e-04
      -1.49650470e-04 -5.42819966e-03 -5.42819966e-03 0. 0. 0.
      5.29916398e-03 0. 0. 0. -5.42819966e-03 -5.42819966e-03
      3.52936826e-04 1.05612143e-03 0. 1.70972012e-02 0. -2.68686417e-04
      -8.97902864e-05 -5.42819966e-03 -5.42819966e-03 0. 0. 0.
      5.19619556e-03 0. 0. 0. -5.42819966e-03 -4.63376287e-03 0. 0. 0.
      7.32677616e-03 0. -1.67071738e-03 -5.58324391e-04 -4.63376287e-03
      -4.63376287e-03 0. 0. 0. 0. 0. -4.63376287e-03 -1.60738279e-03
      -4.63376287e-03 -4.63376287e-03 0. 0. 0. 7.32677616e-03 0.
      -2.78452900e-03 -9.30540729e-04 -4.63376287e-03 -4.63376287e-03 0.
      0. 0. 0. 0. -4.63376287e-03 -2.67897127e-03 -4.63376287e-03
      -3.79126170e-03 0. 0. 0. 1.94997003e-03 0. 9.76654919e-05
      3.26392910e-05 -3.79126170e-03 -5.56652341e-03 0. 0. 0.
      5.08882478e-03 0. 5.08882478e-03 4.58833948e-03 -5.56652341e-03
      -5.87198138e-03 0. 0. 0. 4.02862002e-04 0. -2.11005774e-03
      -7.05144193e-04 -5.87198138e-03 -5.87198138e-03 0. 0. 0.
      5.08882478e-03 0. 5.08882478e-03 2.79393001e-03 -5.87198138e-03
      -4.16860403e-03 0. 0. 0. 4.62845154e-03 0. 4.62845154e-03
      2.45738635e-03 -4.16860403e-03 -5.46320109e-03 0. 0. 0.
      1.98717299e-03 0. 7.07284373e-04 2.36362612e-04 -5.46320109e-03
      -5.94875962e-03 0. 0. 0. 4.62845154e-03 0. 4.62845154e-03
      3.14092869e-03 -5.94875962e-03 -5.94875962e-03 0. 0. 0.
      4.62845154e-03 0. 3.17412009e-03 1.06073788e-03 -5.94875962e-03
      -4.16860403e-03 0. 0. 0. 0. 0. 0. 0. -4.16860403e-03
      -5.52479457e-03 -9.84257531e-06 -2.94526290e-05 0. -3.21977044e-04
      0. -1.92055246e-04 -6.41816514e-05 -5.52479457e-03 -5.94875962e-03
      0. 0. 0. 1.17424671e-02 0. 0. 0. -5.94875962e-03 -6.05141558e-03
      0. 0. 0. -3.21977044e-04 0. -1.15233153e-04 -3.85089916e-05
      -6.05141558e-03 -4.23493003e-03 -3.42807543e-05 -1.02581034e-04 0.
      -2.20049435e-04 0. -1.35946349e-04 -4.54309920e-05 -4.23493003e-03
      -6.02058880e-03 -5.04047348e-05 -1.50830165e-04 0. -1.27245504e-02
      0. -9.52595728e-05 -3.18341445e-05 -6.02058880e-03 -6.05930295e-03
      -1.67829094e-05 -5.02208677e-05 0. -1.26363142e-04 0.
      -7.38661984e-05 -2.46848485e-05 -6.05930295e-03 -1.18379137e-02
      -2.79715168e-05 -8.37014450e-05 0. -1.26638552e-02 0.
      -4.43197168e-05 -1.48109084e-05 -1.18379137e-02 0. 2.89912074e-04
      8.67524184e-04 0. 3.31127807e-03 0. 0. 0. 0. 0. 2.02938449e-03
      5.38831251e-03 0. 5.38831251e-03 0. 0. 0. 0. 0. 2.93729710e-04
      8.78948020e-04 0. 5.38831251e-03 0. 0. 0. 0. 0. -6.05708919e-03
      -9.62271634e-03 0. -7.43821077e-03 0. 0. 0. 0. 0. 2.21306249e-03
      4.62636631e-03 0. 3.33754695e-03 0. 0. 0. 0. -1.34036050e-03
      -7.34874001e-03 -1.77093241e-02 0. -1.13059850e-02 0.
      4.00105305e-03 1.33708515e-03 -1.34036050e-03 0. -2.24573119e-03
      -5.64187160e-03 0. -4.72888164e-03 0. 0. 0. 0. -8.04216310e-04
      -1.56930480e-02 -1.65391713e-02 0. -2.02252399e-02 0.
      -2.54291273e-03 -8.49799078e-04 -8.04216310e-04 -3.44824255e-03
      -4.13723569e-03 -1.23801408e-02 0. -8.09499249e-03 0.
      2.44565168e-03 8.17296212e-04 -3.44824255e-03 -5.35033969e-03
      -3.44167929e-03 -1.00163743e-02 0. -8.55908357e-03 0.
      -3.29812500e-03 -1.10530865e-03 -5.35033969e-03 -3.48893343e-03
      -6.41758740e-03 -1.12717953e-02 0. -1.31407101e-02 0.
      -2.42833095e-03 -1.92396366e-03 -3.48893343e-03 -9.92838759e-03
      -7.74749788e-03 -1.20773390e-02 0. -1.20765902e-02 0.
      -8.49104021e-03 -4.50868206e-03 -9.92838759e-03 -3.09068942e-03
      -3.76807689e-03 -8.10981728e-03 0. -3.55715980e-03 0.
      -7.59632373e-03 -2.86010909e-03 -3.09068942e-03 0. 5.65206632e-04
      1.69131369e-03 0. 8.31141777e-04 0. -7.98441702e-04
      -2.66825227e-04 0. -9.95355006e-03 -8.36203061e-03 -1.55304139e-02
      0. -6.14710758e-03 0. -8.69890023e-03 -5.19472873e-03
      -9.95355006e-03 -7.65426224e-03 2.40159384e-03 3.64558189e-03 0.
      -1.31253549e-03 0. -1.36232493e-03 -4.55265079e-04 -7.65426224e-03
      -4.61647433e-04 1.47423847e-03 4.41148365e-03 0. 7.44645484e-03 0.
      0. 0. -4.61647433e-04 -2.02690507e-03 9.41625389e-04
      2.81770225e-03 0. 7.44645484e-03 0. 0. 0. -2.02690507e-03
      -7.53511814e-03 2.70322012e-03 5.68500394e-03 0. 7.44645484e-03 0.
      0. 0. -7.53511814e-03 -2.13129781e-02 6.33447489e-04
      1.89551641e-03 0. 6.38649473e-03 0. 0. 0. -2.13129781e-02
      -2.24088226e-03 1.13186683e-03 2.89141596e-03 0. 8.04727152e-03 0.
      0. 0. -2.24088226e-03 -2.93680793e-03 0. 0. 0. 5.19619556e-03 0.
      0. 0. -2.93680793e-03 -1.59499850e-02 4.25390841e-04
      1.27293169e-03 0. 8.08761176e-03 0. -2.85639032e-03
      -9.54557909e-04 -1.59499850e-02 -1.59499850e-02 0. 0. 0.
      5.19619556e-03 0. -6.19750423e-03 -2.74811569e-03 -1.59499850e-02
      -3.25300940e-03 0. 0. 0. 7.32677616e-03 0. -1.83750957e-03
      -6.14063407e-04 -3.25300940e-03 -5.28601464e-03 0. 0. 0. 0. 0.
      -5.28601464e-03 -1.76785211e-03 -5.28601464e-03 -1.34161329e-02
      -1.65994361e-03 -4.96716518e-03 0. 7.32677616e-03 0.
      -3.34839383e-03 -1.11897720e-03 -1.34161329e-02 -1.34161329e-02
      -4.77888016e-03 -8.13011918e-03 0. 0. 0. 0. 0. -1.34161329e-02
      -5.54510113e-03 0. 0. 0. 0. 0. -9.48630099e-04 -3.17015540e-04
      -5.54510113e-03 -7.11774407e-03 0. 0. 0. 5.96536929e-03 0.
      5.96536929e-03 4.01897496e-03 -7.11774407e-03 -1.30190952e-02
      -2.40551773e-03 -7.19819823e-03 0. 0. 0. 0. 0. -1.30190952e-02
      -1.30190952e-02 -5.36670489e-03 -7.59830978e-03 0. 5.96536929e-03
      0. 3.75272543e-03 1.25409814e-03 -1.30190952e-02 -6.88497955e-03
      -6.51967493e-05 -1.95092784e-04 0. 3.85014946e-03 0.
      3.85014946e-03 1.78853795e-03 -6.88497955e-03 -8.37351847e-03
      -7.70040439e-04 -2.30424572e-03 0. 3.85014946e-03 0.
      3.49129620e-03 1.33009802e-03 -8.37351847e-03 -1.31086567e-02
      -1.50461798e-03 -4.50237328e-03 0. 3.85014946e-03 0.
      3.85014946e-03 1.80025725e-03 -1.31086567e-02 -1.31086567e-02
      -5.39028365e-03 -7.67636951e-03 0. 3.85014946e-03 0.
      1.33817573e-03 2.57847598e-03 -1.31086567e-02 -8.77367798e-03
      -5.09422040e-04 -1.52437924e-03 0. 4.25710017e-03 0.
      6.41626306e-04 2.14422107e-04 -8.77367798e-03 -6.73959684e-03
      -4.74020744e-05 -1.41844546e-04 0. -1.75190187e-04 0.
      -1.78845949e-03 -5.97671722e-04 -6.73959684e-03 -1.19649759e-02
      -3.56595428e-03 -6.51282258e-03 0. 3.63703165e-03 0.
      -3.63464467e-04 9.66236927e-04 -1.19649759e-02 -7.40590272e-03
      -3.31814517e-04 -9.92911751e-04 0. -6.17513992e-03 0.
      -6.51282258e-03 -6.06367458e-03 -7.40590272e-03 -7.63361482e-03
      -5.43482747e-06 -1.62630131e-05 0. -2.25664626e-05 0.
      -4.36592731e-04 -1.45901620e-04 -7.63361482e-03 -1.34561555e-02
      -9.05804518e-06 -2.71050212e-05 0. -8.20360705e-03 0.
      -3.34881588e-05 -1.11911540e-05 -1.34561555e-02 -1.72930583e-03
      -3.80437887e-05 -1.13841088e-04 0. -8.38342588e-03 0.
      -5.13359159e-03 -1.71555614e-03 -1.72930583e-03 -6.68646768e-03
      -6.34063181e-05 -1.89735161e-04 0. -8.38342588e-03 0.
      -2.15072359e-04 -7.83380819e-05 -6.68646768e-03 0. 8.21611029e-04
      2.45856424e-03 0. 4.79558902e-03 0. 0. 0. 0. 0. -1.05676637e-03
      -3.16223665e-03 0. -7.76118040e-03 0. 0. 0. 0. 0. 8.47659539e-04
      2.53651082e-03 0. 2.54747970e-03 0. 0. 0. 0. 0. -1.81906112e-02
      -1.56898014e-02 0. -1.51217300e-02 0. 0. 0. 0. 0. -3.19436798e-03
      -4.98064049e-03 0. -3.24289664e-03 0. 0. 0. 0. 0. -8.71398300e-03
      -1.32369082e-02 0. -1.47239035e-02 0. -7.75755895e-03
      -8.32646526e-03 0. 0. -7.53245968e-03 -8.28520488e-03 0.
      -6.48062676e-03 0. 0. 0. 0. -8.25218949e-03 -1.55345434e-02
      -2.08124127e-02 0. -5.94933238e-03 0. -2.41307239e-03
      -8.06408469e-04 -8.25218949e-03 -2.57155206e-03 -2.80333078e-03
      -8.38579331e-03 0. -1.14830881e-02 0. -5.44715347e-03
      -3.38673289e-03 -2.57155206e-03 -6.19085552e-03 -4.83965222e-03
      -1.31968502e-02 0. -8.84509366e-03 0. -7.41877547e-03
      -3.79784615e-03 -6.19085552e-03 -7.96381943e-03 -4.82027419e-03
      -1.29644657e-02 0. -8.01050756e-03 0. -2.83361040e-03
      -9.46943823e-04 -7.96381943e-03 -1.86846517e-02 -6.39349548e-03
      -9.99817625e-03 0. -8.01401958e-03 0. -1.41070634e-02
      -5.69260912e-03 -1.86846517e-02 -6.99615758e-03 -5.30050369e-03
      -1.24566359e-02 0. -6.51900563e-03 0. -3.01315775e-03
      -1.00694480e-03 -6.99615758e-03 -7.56960688e-03 -1.48544903e-04
      -4.44498612e-04 0. 5.16089750e-03 0. -1.95627770e-04
      -6.53753596e-05 -7.56960688e-03 -1.95936412e-02 -4.58843028e-03
      -8.11698288e-03 0. -4.27993434e-03 0. -1.12573644e-02
      -9.17905942e-03 -1.95936412e-02 -1.28468852e-02 -3.95334559e-04
      -4.50425810e-04 0. 8.51405971e-03 0. -2.62157503e-03
      -8.76084319e-04 -1.28468852e-02 -8.63867905e-03 5.90530108e-04
      1.76709704e-03 0. 9.90590081e-03 0. 0. 0. -8.63867905e-03
      -1.15346527e-02 -1.18503592e-03 -3.54606379e-03 0. 4.95516742e-03
      0. 0. 0. -1.15346527e-02 -1.08633349e-02 -2.21437518e-03
      -2.67125433e-03 0. 9.90590081e-03 0. 0. 0. -1.08633349e-02
      -1.22107910e-02 -3.16211977e-03 -6.29869197e-03 0. 5.42993285e-03
      0. 0. 0. -1.22107910e-02 -1.04739759e-02 -1.63286447e-03
      -4.88613453e-03 0. 8.90537351e-03 0. -2.91347271e-03
      -9.73633956e-04 -1.04739759e-02 -1.10505931e-02 -6.13681390e-04
      -1.83636171e-03 0. 5.19619556e-03 0. -4.84417612e-03
      -2.80303461e-03 -1.10505931e-02 -9.73636936e-03 -2.72144051e-03
      -6.20641652e-03 0. 8.94571375e-03 0. -1.74808386e-03
      -5.84180409e-04 -9.73636936e-03 -1.10505931e-02 -1.02280220e-03
      -3.06060282e-03 0. 5.19619556e-03 0. -4.84417612e-03
      -1.68182096e-03 -1.10505931e-02 -1.12706022e-02 -1.14208960e-03
      -3.41755431e-03 0. 7.32677616e-03 0. -1.97574613e-03
      -6.60261256e-04 -1.12706022e-02 -1.12706022e-02 -3.28800851e-03
      -5.90652321e-03 0. 0. 0. 0. 0. -1.12706022e-02 -1.12706022e-02
      -6.85253821e-04 -2.05053296e-03 0. 7.32677616e-03 0.
      -1.18544768e-03 -3.96156800e-04 -1.12706022e-02 -1.12706022e-02
      -1.97280524e-03 -5.90336276e-03 0. 0. 0. 0. 0. -1.12706022e-02
      -1.20127853e-02 -2.72039953e-03 -6.58049807e-03 0. 0. 0. 0. 0.
      -1.20127853e-02 -1.20127853e-02 -4.37665777e-03 -6.58049807e-03 0.
      1.17424671e-02 0. 0. 0. -1.20127853e-02 -1.07536828e-02
      -9.37276403e-04 -2.80467770e-03 0. 0. 0. 0. 0. -1.07536828e-02
      -8.99728760e-03 -6.25236833e-04 -1.87093974e-03 0. 0. 0. 0. 0.
      -8.99728760e-03 -1.32122403e-02 -2.15430534e-03 -6.44647796e-03 0.
      2.85818777e-03 0. 2.45162635e-03 8.19292502e-04 -1.32122403e-02
      -1.32122403e-02 -3.51271918e-03 -7.77995260e-03 0. 4.82176710e-03
      0. 3.18477396e-03 3.66236106e-03 -1.32122403e-02 -7.39944167e-03
      -2.65270734e-04 -7.93788175e-04 0. 8.74187739e-04 0.
      4.26977553e-04 1.42688761e-04 -7.39944167e-03 -7.26450002e-03
      -3.90752772e-04 -1.16928131e-03 0. 4.82176710e-03 0.
      4.82176710e-03 3.48778791e-03 -7.26450002e-03 -6.42750552e-03
      -8.65667360e-04 -2.59039691e-03 0. -1.18540938e-03 0.
      -8.13180814e-04 5.09801961e-04 -6.42750552e-03 -4.96613467e-03
      -8.05509553e-05 -2.41038259e-04 0. -7.51250284e-03 0.
      -1.08712949e-02 -3.63299949e-03 -4.96613467e-03 -4.93205804e-03
      -1.44749845e-03 -4.33146721e-03 0. -3.26241483e-03 0.
      3.78451403e-03 3.52661218e-03 -4.93205804e-03 -4.78450395e-03
      -1.96601846e-03 -5.88307856e-03 0. -3.64478002e-03 0.
      -3.25814146e-03 -2.02810229e-03 -4.78450395e-03 -3.51908337e-03
      -1.36118779e-05 -4.07318184e-05 0. -9.85271018e-03 0.
      -4.70851967e-03 -1.57350721e-03 -3.51908337e-03 -6.25708839e-03
      -4.29923020e-05 -1.28649175e-04 0. -9.85271018e-03 0.
      -3.90229019e-04 -1.30407949e-04 -6.25708839e-03 -5.54814795e-03
      -5.51080564e-04 -1.64904294e-03 0. -9.84432176e-03 0.
      -4.98428568e-03 -1.66566484e-03 -5.54814795e-03 -5.63962478e-03
      -4.44190191e-05 -1.32918649e-04 0. -9.85271018e-03 0.
      -5.49692835e-04 -1.83698168e-04 -5.63962478e-03 0. -6.91661189e-05
      -2.06970595e-04 0. 2.41218740e-03 0. 0. 0. 0. 0. -7.86024053e-03
      -1.57678314e-02 0. -9.60034505e-03 0. 0. 0. 0. 1.79967340e-02
      -9.50254325e-05 -6.57970202e-04 0. 1.03658782e-02 0. 0. 0.
      1.79967340e-02 0. -1.21314554e-02 -1.31818876e-02 0.
      -1.13807805e-02 0. 0. 0. 0. 0. -1.03941439e-02 -1.36664780e-02 0.
      -6.90479251e-03 0. 0. 0. 0. -7.61161849e-04 -7.33917113e-03
      -1.57942548e-02 0. -8.24348908e-03 0. 0. 0. -7.61161849e-04 0.
      -9.31856129e-03 -1.70089062e-02 0. -1.16131119e-02 0. 0. 0. 0.
      -1.08737418e-04 -1.07115414e-02 -1.34626105e-02 0. -7.87381548e-03
      0. 0. 0. -1.08737418e-04 -4.43536742e-03 -5.04091894e-03
      -1.12568662e-02 0. -9.88469645e-03 0. -2.17348686e-03
      -7.26341212e-04 -4.43536742e-03 -1.34061864e-02 -5.04080672e-03
      -8.86741746e-03 0. -1.24483155e-02 0. -1.34579958e-02
      -5.89656038e-03 -1.34061864e-02 -1.00392674e-03 -7.80187640e-03
      -1.12763420e-02 0. -6.09017722e-03 0. -3.03094508e-04
      -1.01288861e-04 -1.00392674e-03 -4.19019861e-03 -4.54247044e-03
      -1.11961113e-02 0. 5.89038618e-03 0. -3.57985683e-03
      -1.19632529e-03 -4.19019861e-03 -1.10311005e-02 -9.15916450e-03
      -9.64398310e-03 0. -6.81741629e-03 0. -8.83489847e-03
      -3.68469651e-03 -1.10311005e-02 -8.80672596e-03 6.18996448e-04
      8.21715745e-04 0. 4.32914915e-03 0. -8.13828025e-04
      -2.71967059e-04 -8.80672596e-03 -2.38450360e-03 -3.52974283e-03
      -9.14178696e-03 0. -3.67912441e-03 0. -5.24764322e-03
      -1.75367051e-03 -2.38450360e-03 -2.90767616e-03 2.13148934e-03
      5.79561340e-03 0. 2.31337850e-03 0. -4.88296850e-04
      -1.63180244e-04 -2.90767616e-03 -6.33993046e-03 -2.02364055e-04
      1.47171249e-03 0. 8.11669976e-03 0. 0. 0. -6.33993046e-03
      -6.33993046e-03 -1.70596584e-03 -5.10487659e-03 0. 3.85507895e-03
      0. 0. 0. -6.33993046e-03 -4.58196690e-03 2.22768518e-03
      6.66608289e-03 0. 8.11669976e-03 0. 0. 0. -4.58196690e-03
      -6.33993046e-03 -1.04700775e-04 -3.13304627e-04 0. 2.26450525e-03
      0. 0. 0. -6.33993046e-03 -7.46141840e-03 -1.00863923e-03
      -3.01822135e-03 0. 8.90537351e-03 0. 0. 0. -7.46141840e-03
      -1.37234339e-02 -3.79078090e-04 -1.13434182e-03 0. 5.19619556e-03
      0. 0. 0. -1.37234339e-02 -7.19189178e-03 -2.07146932e-03
      -6.19862601e-03 0. 8.94571375e-03 0. 0. 0. -7.19189178e-03
      -7.28335837e-03 -2.13714340e-03 -6.39514811e-03 0. 5.19619556e-03
      0. 0. 0. -7.28335837e-03 -9.36966203e-03 0. 0. 0. 7.32677616e-03
      0. 0. 0. -9.36966203e-03 -1.02512222e-02 0. 0. 0. 0. 0. 0. 0.
      -1.02512222e-02 -7.67393690e-03 -1.97751424e-03 -5.91747742e-03 0.
      7.32677616e-03 0. 0. 0. -7.67393690e-03 -7.67393690e-03
      -5.33747859e-03 -7.67393690e-03 0. 0. 0. 0. 0. -7.67393690e-03
      -9.16271843e-03 -6.42929954e-05 -1.92389169e-04 0. 0. 0. 0. 0.
      -9.16271843e-03 -1.07441982e-02 -7.59366143e-04 -2.27231300e-03 0.
      0. 0. 0. 0. -1.07441982e-02 -7.76718557e-03 -1.48376089e-03
      -4.43997839e-03 0. 0. 0. 0. 0. -7.76718557e-03 -7.76718557e-03
      -5.31556318e-03 -7.76718557e-03 0. 0. 0. 0. 0. -7.76718557e-03
      -1.17396880e-02 -3.63584375e-04 -1.08798291e-03 0. 2.47508462e-04
      0. 0. 0. -1.17396880e-02 -1.29621588e-02 -1.59941765e-03
      -4.78606764e-03 0. 5.55247534e-03 0. 5.55247534e-03 3.60498298e-03
      -1.29621588e-02 -6.49809977e-03 -2.54509016e-03 -6.49809977e-03 0.
      0. 0. 0. 0. -6.49809977e-03 -6.49809977e-03 -2.36322987e-03
      -6.49809977e-03 0. 5.55247534e-03 0. 5.45384688e-03 1.82258454e-03
      -6.49809977e-03 -8.12616851e-03 -5.22093801e-03 -6.48679212e-03 0.
      8.54592421e-04 0. 2.87276483e-03 1.38950418e-03 -8.12616851e-03
      -6.61325688e-03 -4.73230844e-03 -6.48679212e-03 0. -3.03587085e-03
      0. -3.71201267e-03 -3.46215931e-03 -6.61325688e-03 -6.10787561e-03
      -4.73230844e-03 -6.48679212e-03 0. 3.88041604e-03 0.
      3.99087882e-03 2.44703703e-03 -6.10787561e-03 -3.86620144e-04
      -2.89116940e-03 -6.48679212e-03 0. 3.21763870e-03 0.
      3.99087882e-03 3.03420029e-03 -3.86620144e-04 -7.64658023e-03
      -1.10075786e-03 -3.29388748e-03 0. -6.39179954e-03 0.
      -2.53825099e-03 -8.48240976e-04 -7.64658023e-03 -7.13048130e-03
      -6.67534332e-05 -1.95965666e-04 0. -1.18783293e-02 0.
      -4.87181154e-04 -1.62807817e-04 -7.13048130e-03 0. -4.10115172e-04
      -1.22722110e-03 0. 5.80979837e-03 0. 6.53455267e-03 6.35345420e-03
      0. 3.03441309e-03 0. 0. 0. -8.64795037e-03 0. 0. 0. 3.03441309e-03
      2.97068292e-03 -1.17846089e-03 -2.39505479e-03 0. 7.16628879e-03
      0. 9.33736749e-03 3.12038418e-03 2.97068292e-03 0. -5.43583510e-03
      -7.40757026e-03 0. -1.27711631e-02 0. -1.02853600e-03
      -3.43719556e-04 0. 1.11647544e-03 -3.52184707e-03 -1.76751451e-03
      0. 5.56906406e-03 0. 1.37557322e-02 1.10205263e-02 1.11647544e-03
      -8.47845513e-04 -1.23052662e-02 -1.65568385e-02 0. -1.24832010e-02
      0. -7.09626637e-03 -4.84253839e-03 -8.47845513e-04 -3.85912572e-04
      -3.31427809e-03 -9.78398323e-03 0. -7.02661183e-03 0.
      -4.78877104e-04 -1.60032723e-04 -3.85912572e-04 -1.85589679e-03
      -6.52357284e-03 -1.31305726e-02 0. -5.89625118e-03 0.
      -9.40998027e-04 -3.14465025e-04 -1.85589679e-03 -4.70640324e-03
      -6.02506008e-03 -1.41569199e-02 0. -1.65928192e-02 0.
      -6.60559582e-03 -3.32855270e-03 -4.70640324e-03 -1.05741257e-02
      -7.43280584e-03 -1.58897545e-02 0. -5.80379646e-03 0.
      -7.07671978e-03 -2.40674126e-03 -1.05741257e-02 -1.97083852e-03
      -4.34404984e-03 -1.07876360e-02 0. -7.51412800e-03 0.
      -6.86492946e-04 -2.29413898e-04 -1.97083852e-03 -6.13349304e-03
      -3.14721861e-03 -9.41767916e-03 0. 4.18969942e-03 0.
      -1.06828258e-04 -3.57001263e-05 -6.13349304e-03 -1.38265565e-02
      -4.56245104e-03 -1.36525892e-02 0. -7.51412800e-03 0.
      -4.71805688e-03 -1.60589733e-03 -1.38265565e-02 -1.38649121e-02
      -8.82665906e-03 -1.02229202e-02 0. 6.43104175e-03 0.
      -7.47797836e-04 -2.49900913e-04 -1.38649121e-02 -6.77788118e-03
      -1.59037451e-03 -4.75900667e-03 0. 4.30432148e-03 0. 0. 0.
      -6.77788118e-03 -8.35401472e-03 3.61495040e-04 1.08173105e-03 0.
      5.31182671e-03 0. 0. 0. -8.35401472e-03 -1.63268168e-02
      -4.35256539e-03 -9.47549101e-03 0. 4.42721089e-03 0. 0. 0.
      -1.63268168e-02 -1.63268168e-02 -1.12016918e-03 -3.35197337e-03 0.
      6.87557133e-03 0. -1.78942666e-03 -5.97994949e-04 -1.63268168e-02
      -7.22050387e-03 9.95748909e-04 1.85837096e-03 0. 9.19408724e-03 0.
      0. 0. -7.22050387e-03 -6.56349258e-03 -1.02299592e-03
      -3.06119397e-03 0. 2.65178364e-03 0. 0. 0. -6.56349258e-03
      -1.36536453e-02 -1.74572377e-03 -3.18054529e-03 0. 9.19408724e-03
      0. -7.32798921e-03 -3.41790123e-03 -1.36536453e-02 -1.36536453e-02
      -1.28669292e-03 -3.85027588e-03 0. 2.65178364e-03 0.
      -7.32798921e-03 -3.52626271e-03 -1.36536453e-02 -5.82769280e-03
      -2.23351130e-03 -5.77940373e-03 0. 5.15585532e-03 0. 0. 0.
      -5.82769280e-03 -5.83762908e-03 -2.30432278e-03 -5.77940373e-03 0.
      5.19619556e-03 0. 0. 0. -5.83762908e-03 -1.53698595e-02
      -1.34010683e-03 -4.01011063e-03 0. 5.19619556e-03 0.
      -1.34599360e-03 -4.49807441e-04 -1.53698595e-02 -1.53698595e-02
      -1.38259365e-03 -4.13724780e-03 0. 5.19619556e-03 0.
      -1.86608406e-04 -6.23612577e-05 -1.53698595e-02 -6.81425491e-03
      -1.81782607e-03 -5.43962885e-03 0. 7.32677616e-03 0. 0. 0.
      -6.81425491e-03 -6.78439811e-03 -4.43083374e-03 -6.78164931e-03 0.
      0. 0. 0. 0. -6.78439811e-03 -1.53819779e-02 -3.87129781e-04
      -1.15844002e-03 0. 7.32677616e-03 0. -2.22754257e-04
      -1.33733745e-04 -1.53819779e-02 -1.32027185e-02 -6.32976356e-04
      -1.89410662e-03 0. 0. 0. -1.50400840e-04 -5.02613220e-05
      -1.32027185e-02 -7.85151776e-03 -2.13803723e-03 -6.39782287e-03 0.
      0. 0. 0. 0. -7.85151776e-03 -7.85151776e-03 -3.48619279e-03
      -7.85151776e-03 0. 0. 0. 0. 0. -7.85151776e-03 -1.15937823e-02
      -2.63267546e-04 -7.87796918e-04 0. 0. 0. 0. 0. -1.15937823e-02
      -1.14598591e-02 0. 0. 0. 0. 0. 0. 0. -1.14598591e-02
      -8.21926631e-03 -4.26981552e-03 -8.21926631e-03 0. 0. 0. 0. 0.
      -8.21926631e-03 -8.21926631e-03 -1.54203828e-03 -4.61436622e-03 0.
      7.99349789e-03 0. 7.99349789e-03 3.24562588e-03 -8.21926631e-03
      -8.97054747e-03 0. 0. 0. 0. 0. -3.93504603e-03 -1.31502317e-03
      -8.97054747e-03 -8.24275147e-03 0. 0. 0. 0. 0. -8.24275147e-03
      -3.84925329e-03 -8.24275147e-03 -9.57372412e-03 -6.33795839e-03
      -9.57372412e-03 0. 3.42843914e-03 0. 3.54408100e-03 1.18437258e-03
      -9.57372412e-03 -2.10473454e-03 -2.38200277e-03 -7.12786010e-03 0.
      4.68024518e-03 0. 4.68024518e-03 3.26506444e-03 -2.10473454e-03
      -9.63766407e-03 0. 0. 0. 2.03219568e-03 0. -8.59347079e-03
      -9.28871240e-03 -9.63766407e-03 0. 0. 0. 0. 4.68024518e-03 0.
      4.59426362e-03 3.03349993e-03 0. 0. 0. 0. 0. 5.26921125e-03 0.
      5.26921125e-03 1.90801360e-03 0. 1.67905458e-03 0. 0. 0.
      -9.73975938e-03 0. 0. 0. 1.67905458e-03 0. 0. 0. 0. 5.26921125e-03
      0. 5.26921125e-03 3.83358356e-03 0. -3.60709266e-03 0. 0. 0.
      -7.52952136e-03 0. 9.56153439e-04 3.19530460e-04 -3.60709266e-03
      0. -5.32967504e-03 -1.39131024e-03 0. 6.52412372e-03 0.
      9.89314076e-03 4.21230029e-03 0. -6.87901443e-03 -6.01052959e-03
      -1.68527961e-02 0. -1.11933872e-02 0. -5.96520724e-03
      -7.20765162e-03 -6.87901443e-03 0. -3.43127968e-03 -5.17216558e-03
      0. 9.09973122e-03 0. 1.13149937e-02 4.88969544e-03 0.
      -4.12740931e-03 -7.57938717e-03 -8.43243301e-03 0. 7.65464269e-03
      0. 1.40629549e-04 4.69929691e-05 -4.12740931e-03 -6.52177911e-03
      -7.15466589e-03 -1.26417801e-02 0. -1.01779699e-02 0.
      -6.52177911e-03 -3.56698362e-03 -6.52177911e-03 -1.54846869e-02
      -5.81442239e-03 -1.19529534e-02 0. -7.08064064e-03 0.
      -9.81324259e-03 -5.14551811e-03 -1.54846869e-02 -3.59649328e-03
      -4.63546207e-03 -6.89247390e-03 0. -5.43117477e-03 0.
      -1.28501467e-03 -4.29430394e-04 -3.59649328e-03 -4.88314452e-03
      -2.28700158e-03 -6.84357062e-03 0. 1.89560163e-03 0.
      -1.19571501e-04 -3.99587989e-05 -4.88314452e-03 -1.68104842e-02
      -3.66984261e-03 -1.09815672e-02 0. -4.33563488e-03 0.
      -4.33094287e-03 -1.45362236e-03 -1.68104842e-02 -1.68104842e-02
      -5.93626965e-03 -9.07993969e-03 0. 6.40434213e-03 0.
      -6.79129618e-04 -2.26953169e-04 -1.68104842e-02 -3.56326322e-03
      -2.82002054e-03 -5.83573710e-03 0. -4.42794553e-04 0. 0. 0.
      -3.56326322e-03 -3.91342724e-03 -6.26403373e-04 -1.02691643e-03 0.
      6.57382980e-03 0. 0. 0. -3.91342724e-03 -1.81937162e-02
      -4.65847366e-03 -8.45940877e-03 0. 6.03975030e-03 0. 0. 0.
      -1.81937162e-02 -1.81937162e-02 -4.61024320e-04 -1.37956021e-03 0.
      7.50431046e-03 0. -2.85304594e-03 -9.53437819e-04 -1.81937162e-02
      -7.91912526e-03 7.37166905e-04 2.20588502e-03 0. 6.19663903e-03 0.
      0. 0. -7.91912526e-03 -8.35979544e-03 1.81530474e-03
      5.43208467e-03 0. 7.86065031e-03 0. -4.07578016e-04
      -1.36205403e-04 -8.35979544e-03 -1.48414541e-02 -4.32273280e-03
      -8.19497462e-03 0. 1.10082701e-02 0. -6.38269028e-03
      -2.75568618e-03 -1.48414541e-02 -1.48414541e-02 -1.62461784e-03
      -4.86147637e-03 0. 2.52436986e-03 0. -6.38269028e-03
      -2.84305261e-03 -1.48414541e-02 -1.01801492e-02 5.14902174e-04
      1.54078368e-03 0. 1.10082701e-02 0. -1.17800757e-03
      -3.93669441e-04 -1.01801492e-02 -1.47030540e-02 7.35574577e-05
      2.20111964e-04 0. 2.52436986e-03 0. -1.21535524e-03
      -4.06150415e-04 -1.47030540e-02 -1.79081671e-02 0. 0. 0.
      5.15585532e-03 0. -6.42927538e-04 -2.14855099e-04 -1.79081671e-02
      -1.60480477e-02 0. 0. 0. 5.19619556e-03 0. -2.31932616e-04
      -9.20508028e-05 -1.60480477e-02 -1.22057935e-02 -1.40458299e-03
      -4.20303177e-03 0. 5.19619556e-03 0. -9.18468068e-05
      -3.06935872e-05 -1.22057935e-02 -1.39205772e-02 -4.04371182e-03
      -6.87940652e-03 0. 5.19619556e-03 0. -3.93501105e-05
      -1.31501156e-05 -1.39205772e-02 -7.24952621e-03 0. 0. 0.
      7.32677616e-03 0. -1.92144435e-04 -8.67816125e-05 -7.24952621e-03
      -7.24952621e-03 0. 0. 0. 0. 0. -9.75971052e-05 -3.26152403e-05
      -7.24952621e-03 -1.35679366e-02 -6.68472087e-04 -2.00031581e-03 0.
      7.32677616e-03 0. -3.70976195e-05 -1.23973732e-05 -1.35679366e-02
      -1.53178908e-02 0. 0. 0. 0. 0. -1.39424455e-05 -4.65931998e-06
      -1.53178908e-02 -7.26121617e-03 0. 0. 0. 0. 0. 0. 0.
      -7.26121617e-03 -8.09923094e-03 0. 0. 0. 0. 0. 0. 0.
      -8.09923094e-03 -1.24296304e-02 -4.29491134e-04 -1.28519640e-03 0.
      0. 0. 0. 0. -1.24296304e-02 -1.41219320e-02 -5.07273059e-03
      -6.98041636e-03 0. 0. 0. 0. 0. -1.41219320e-02 -7.42478063e-03
      -4.50286352e-05 -1.34742862e-04 0. -3.66554445e-06 0.
      -3.44144623e-03 -1.15007081e-03 -7.42478063e-03 -5.68216480e-03
      -3.21447238e-04 -9.61892831e-04 0. -2.79908068e-03 0.
      -6.14781864e-03 -3.99979576e-03 -5.68216480e-03 -9.67908371e-03
      -2.79408763e-03 -7.92639237e-03 0. -3.15769948e-03 0.
      -3.46996449e-03 -1.15960115e-03 -9.67908371e-03 -7.51861697e-03
      -3.97707243e-03 -6.72770198e-03 0. -6.75588427e-03 0.
      -1.24395592e-02 -7.72368815e-03 -7.51861697e-03 -1.91388757e-03
      -3.87094449e-04 -1.15833420e-03 0. -6.35169586e-03 0.
      -7.64208427e-03 -3.74930678e-03 -1.91388757e-03 -6.11412088e-06
      -1.61849380e-06 -4.84315069e-06 0. 3.92856263e-03 0.
      5.23324497e-03 4.21006000e-03 -6.11412088e-06 -7.37591926e-03
      -4.51747514e-03 -7.80163426e-03 0. -1.36544593e-02 0.
      -1.50001217e-02 -1.08962227e-02 -7.37591926e-03 -4.27988525e-05
      -3.21688858e-05 -9.62613412e-05 0. -2.13085278e-03 0.
      2.08860822e-03 1.79459946e-03 -4.27988525e-05 -3.16192600e-05 0.
      0. 0. 4.18547867e-03 0. 4.18547867e-03 2.34579109e-03
      -3.16192600e-05 -8.95974971e-03 0. 0. 0. -6.57319464e-03 0.
      1.96672929e-03 6.57248078e-04 -8.95974971e-03 -1.75467605e-04
      -6.41538791e-05 -1.75467605e-04 0. 4.01001144e-03 0.
      4.05495893e-03 3.37344897e-03 -1.75467605e-04 7.58740280e-05
      -3.84923296e-05 -1.15183284e-04 0. 6.24663709e-03 0.
      4.01001144e-03 2.50506634e-03 7.58740280e-05 -3.00203101e-03
      2.21891492e-03 2.95126066e-03 0. 1.16190501e-02 0. 5.39534958e-03
      1.78919919e-03 -3.00203101e-03 -8.24343320e-03 -4.29385668e-03
      -5.83760999e-03 0. 7.39962654e-03 0. 5.66540193e-03 1.89327786e-03
      -8.24343320e-03 -5.75375790e-03 -1.89968932e-03 -2.15093326e-03 0.
      8.68377928e-03 0. 4.50286875e-03 2.83685210e-03 -5.75375790e-03
      -1.42622925e-02 -4.60084761e-03 -5.83760999e-03 0. -2.02160841e-03
      0. 3.76561680e-03 2.51320610e-03 -1.42622925e-02 -6.28440734e-03
      -3.96689260e-03 -6.23584678e-03 0. 1.08443676e-02 0. 0. 0.
      -6.28440734e-03 -8.65393505e-03 -1.40901213e-03 -4.21629986e-03 0.
      1.09092949e-03 0. -1.65990263e-03 -5.54710277e-04 -8.65393505e-03
      -1.38093764e-02 -1.70390611e-03 -5.09871729e-03 0. 6.04172796e-03
      0. 1.44457696e-02 8.20218679e-03 -1.38093764e-02 -1.54216653e-02
      -5.74931561e-04 -1.72041461e-03 0. -1.20317319e-03 0.
      -7.44992262e-03 -2.48963432e-03 -1.54216653e-02 -8.05199519e-03
      -1.32870511e-03 -3.97599256e-03 0. 5.02076873e-04 0.
      -1.82992592e-03 -6.11529162e-04 -8.05199519e-03 -1.06880525e-02
      -4.05785802e-04 -1.21425604e-03 0. 6.77379128e-03 0.
      -1.09795562e-03 -3.66917491e-04 -1.06880525e-02 -1.81784444e-02
      -1.33838376e-03 -4.00495529e-03 0. -3.69208283e-03 0.
      -9.14990995e-03 -4.19644266e-03 -1.81784444e-02 -1.49527453e-02
      1.18412590e-03 2.47575304e-06 0. 3.70921288e-03 0. -3.18813510e-03
      -1.06541882e-03 -1.49527453e-02 -1.00344708e-02 -3.38911050e-04
      -1.01413520e-03 0. 1.27193080e-02 0. 0. 0. -1.00344708e-02
      -1.13034770e-02 5.79322397e-04 1.73355988e-03 0. 8.18436313e-03 0.
      -9.35662771e-04 -3.12682852e-04 -1.13034770e-02 -1.83029752e-02
      -1.07565930e-03 -3.98435490e-03 0. 1.01259351e-02 0.
      -7.86580145e-04 -2.62861286e-04 -1.83029752e-02 -1.83029752e-02
      -9.61459242e-04 -2.87703401e-03 0. 3.04428511e-03 0.
      -1.20556997e-02 -4.02880879e-03 -1.83029752e-02 -8.98894388e-03
      1.09824247e-03 2.59206793e-03 0. 2.59206793e-03 0. -1.76067429e-03
      -5.88387891e-04 -8.98894388e-03 -7.84161966e-03 1.56891780e-04
      4.69480059e-04 0. 1.95604865e-03 0. -6.88740576e-04
      -2.30165577e-04 -7.84161966e-03 -2.05343254e-02 4.12753783e-04
      1.23511674e-03 0. -4.39656712e-03 0. -1.45001262e-02
      -7.47143570e-03 -2.05343254e-02 -1.69259962e-02 5.89648262e-05
      1.76445246e-04 0. -1.51864893e-03 0. -4.82118363e-03
      -1.61115907e-03 -1.69259962e-02 -6.73612254e-03 -9.66394087e-04
      -2.89180828e-03 0. 5.15585532e-03 0. -5.08525736e-05
      -1.69940795e-05 -6.73612254e-03 -7.21527496e-03 -2.78219138e-03
      -4.99788206e-03 0. 5.19619556e-03 0. -1.91119834e-05
      -6.38690517e-06 -7.21527496e-03 -2.20630839e-02 -5.79836487e-04
      -1.73508527e-03 0. 5.19619556e-03 0. -2.16950197e-04
      -1.18958560e-04 -2.20630839e-02 -2.20630839e-02 -1.66931504e-03
      -4.99520730e-03 0. 5.19619556e-03 0. -1.33783877e-04
      -4.47083366e-05 -2.20630839e-02 -7.83195253e-03 -8.68660689e-04
      -2.59935413e-03 0. 7.32677616e-03 0. 0. 0. -7.83195253e-03
      -8.35966971e-03 0. 0. 0. 0. 0. 0. 0. -8.35966971e-03
      -2.45753229e-02 -5.21196460e-04 -1.55961257e-03 0. 7.32677616e-03
      0. 0. 0. -2.45753229e-02 -1.55690433e-02 0. 0. 0. 0. 0. 0. 0.
      -1.55690433e-02 -7.53977243e-03 -2.68881908e-04 -8.04594252e-04 0.
      0. 0. 0. 0. -7.53977243e-03 -7.90060125e-03 -3.30061791e-03
      -6.18405035e-03 0. 0. 0. 0. 0. -7.90060125e-03 -1.43947387e-02
      -3.84117047e-05 -1.14942035e-04 0. 0. 0. 0. 0. -1.43947387e-02
      -1.38202813e-02 -1.32760871e-03 -3.97270638e-03 0. 0. 0. 0. 0.
      -1.38202813e-02 -5.93505800e-03 -2.97211274e-03 -8.89367424e-03 0.
      -5.12853079e-03 0. -8.21268011e-04 -2.74453370e-04 -5.93505800e-03
      -5.46387583e-03 -3.66189261e-03 -6.76709460e-03 0. -1.16935819e-02
      0. -6.10854244e-03 -4.28927224e-03 -5.46387583e-03 -7.43412459e-03
      -3.69715388e-03 -6.98694447e-03 0. -2.59506702e-03 0.
      -1.03181963e-04 -3.44815999e-05 -7.43412459e-03 -1.91873091e-03
      -4.83609969e-03 -7.67746475e-03 0. -1.16935819e-02 0.
      -3.38550541e-03 -1.13137660e-03 -1.91873091e-03 -9.64562292e-04
      -5.79641340e-03 -8.85600690e-03 0. -1.63715538e-02 0.
      -8.93277396e-03 -3.81914014e-03 -9.64562292e-04 -1.22688953e-05
      -1.94865424e-05 -5.83109831e-05 0. 4.16627241e-04 0.
      6.09410089e-03 4.68929298e-03 -1.22688953e-05 -5.08988232e-05
      -3.51040112e-03 -1.04019186e-02 0. -1.63715538e-02 0.
      -3.24473507e-03 -1.08433352e-03 -5.08988232e-05 0. -7.25835198e-05
      -2.17197565e-04 0. -4.70992690e-03 0. -4.21482458e-04
      -1.40852047e-04 0. -2.57124757e-05 -2.02586980e-05 -6.06215217e-05
      0. 3.93426465e-03 0. 4.17764299e-03 1.51256134e-03 -2.57124757e-05
      3.72299040e-03 -1.21552202e-05 -3.63729123e-05 0. 3.95552861e-03
      0. 4.15016571e-03 2.67900503e-03 3.72299040e-03 0. -2.89409991e-06
      -8.66021674e-06 0. 2.29594042e-03 0. 2.10753852e-03 7.04304199e-04
      0. 0. -1.73646004e-06 -5.19613059e-06 0. 3.95552861e-03 0.
      4.20904579e-03 3.31503665e-03 0. -3.34065664e-03 -2.63569294e-03
      -5.78495581e-03 0. 1.11219352e-02 0. 3.83997452e-03 1.28324854e-03
      -3.34065664e-03 -1.53919719e-02 -2.11007753e-03 -5.78495581e-03 0.
      -3.78406054e-04 0. 4.94138291e-03 -5.45828625e-05 -1.53919719e-02
      2.14321166e-03 -8.04305833e-04 -2.40678038e-03 0. 8.22487287e-03
      0. 1.34785863e-04 4.50387743e-05 2.14321166e-03 -3.83418635e-03
      -4.82583477e-04 -1.44406827e-03 0. 2.49013631e-03 0.
      1.44153915e-03 3.43066291e-03 -3.83418635e-03 -1.44363148e-02
      -8.43796355e-04 -2.52495077e-03 0. 7.11474894e-03 0.
      5.11678634e-03 1.70993654e-03 -1.44363148e-02 -1.66379083e-02
      -7.72773754e-04 -2.31243391e-03 0. 1.96106173e-03 0.
      -5.38707245e-03 -1.80026644e-03 -1.66379083e-02 -1.05823185e-02 0.
      0. 0. 1.46519011e-02 0. 1.13830250e-02 9.40700155e-03
      -1.05823185e-02 -1.20708849e-02 -4.63664270e-04 -1.38746039e-03 0.
      1.08675566e-02 0. -1.38124521e-03 -4.61588788e-04 -1.20708849e-02
      -1.88653748e-02 -1.43464899e-03 -4.29301709e-03 0. 9.70558904e-04
      0. -5.58232609e-03 -1.86551549e-03 -1.88653748e-02 -1.65950507e-02
      -5.06333017e-04 -1.51512830e-03 0. 6.39523054e-03 0.
      -2.55682226e-03 -8.54446145e-04 -1.65950507e-02 -9.45967808e-03
      -1.38888299e-03 -4.15606750e-03 0. 5.57372766e-03 0.
      -6.05509442e-04 -2.02350624e-04 -9.45967808e-03 -7.23335287e-03
      -9.71192858e-05 -1.01600715e-03 0. 6.56948797e-03 0.
      -1.99492951e-03 -6.66672015e-04 -7.23335287e-03 -1.55856833e-02
      -2.46587268e-04 -7.37865805e-04 0. 1.09910434e-02 0.
      -1.89383212e-03 -6.32886717e-04 -1.55856833e-02 -1.45338252e-02
      -7.83175405e-04 -2.34355126e-03 0. 9.56523058e-04 0.
      -1.19709652e-02 -5.01502445e-03 -1.45338252e-02 -1.12486416e-02
      1.01647724e-03 3.04169394e-03 0. 1.25706373e-02 0. -2.69721774e-03
      -9.01364954e-04 -1.12486416e-02 -1.16356872e-02 -8.43150337e-05
      -1.31735031e-03 0. 7.95260770e-04 0. -3.27133876e-03
      -1.09322520e-03 -1.16356872e-02 -1.33925071e-02 -3.91430076e-04
      -1.17130810e-03 0. -2.38502584e-03 0. -1.14008514e-02
      -3.93880345e-03 -1.33925071e-02 -1.19102597e-02 -5.53711667e-04
      -1.65691017e-03 0. -4.12078900e-03 0. -3.87205952e-03
      -1.32198061e-03 -1.19102597e-02 -1.29908733e-02 -1.87156387e-04
      -1.04248628e-03 0. -2.38502584e-03 0. -2.04710662e-03
      -6.84107188e-04 -1.29908733e-02 -1.21442890e-02 -9.22852894e-04
      -2.76151719e-03 0. -4.59395535e-03 0. -3.41184204e-03
      -1.14018063e-03 -1.21442890e-02 -1.35620832e-02 -5.41711750e-04
      -1.62100233e-03 0. 3.35734012e-03 0. -9.87276551e-04
      -3.33652075e-04 -1.35620832e-02 -1.51780834e-02 -5.17664885e-04
      -1.54904707e-03 0. 3.14074918e-03 0. -2.50442047e-03
      -8.36933730e-04 -1.51780834e-02 -1.28014749e-02 -1.48392213e-03
      -4.44045104e-03 0. 1.08748558e-03 0. -3.66274570e-03
      -1.22402818e-03 -1.28014749e-02 -1.34009020e-02 -6.95347553e-03
      -1.09712351e-02 0. 1.08748558e-03 0. -4.10870975e-03
      -1.82585407e-03 -1.34009020e-02 -1.32623082e-02 -2.40363137e-04
      -7.19258154e-04 0. 1.85028964e-03 0. -2.44507822e-03
      -8.17102205e-04 -1.32623082e-02 -1.21162608e-02 -1.71688444e-04
      -5.13755367e-04 0. -2.06445158e-03 0. 0. 0. -1.21162608e-02
      -1.39740389e-02 -3.75689752e-03 -1.12420702e-02 0. 1.85028964e-03
      0. -4.07512998e-03 -1.36183691e-03 -1.39740389e-02 -1.16496105e-02
      -1.39483926e-03 -4.17387718e-03 0. -5.47648640e-03 0.
      -2.47168960e-03 -8.25997384e-04 -1.16496105e-02 -1.24554290e-02
      -1.66865575e-04 -4.99323476e-04 0. -4.53262910e-04 0. 0. 0.
      -1.24554290e-02 -1.50180468e-02 -9.79620847e-04 -2.93139811e-03 0.
      -2.38047636e-04 0. -4.80451941e-04 -1.60558600e-04 -1.50180468e-02
      -1.39886923e-02 -1.16805919e-03 -3.49526480e-03 0. -4.98346239e-03
      0. -2.40225811e-03 -8.02794471e-04 -1.39886923e-02 -1.45710893e-02
      -4.07944433e-03 -1.15385391e-02 0. -2.81158718e-03 0.
      -4.80451854e-03 -1.60558708e-03 -1.45710893e-02 -1.33186970e-02
      -4.99561755e-03 -9.42910276e-03 0. -1.47181191e-03 0.
      -1.09815900e-03 -3.66985449e-04 -1.33186970e-02 -8.06005765e-03
      -7.71231577e-03 -1.31228426e-02 0. -8.63767508e-03 0.
      -1.56879833e-04 -5.24264869e-05 -8.06005765e-03 -1.31034423e-02
      -4.72288579e-03 -1.04693277e-02 0. -5.52687841e-03 0.
      -5.52687841e-03 -2.56889826e-03 -1.31034423e-02 -7.81544298e-03
      -5.19010425e-03 -7.96075817e-03 0. -6.65985467e-03 0.
      -1.87044509e-03 -6.25070650e-04 -7.81544298e-03 -1.43066514e-03
      -1.46714263e-02 -1.76921338e-02 0. -1.76199730e-02 0. 0. 0.
      -1.43066514e-03 -1.59858027e-03 -4.66960832e-04 -1.39732496e-03 0.
      -7.06327101e-03 0. 0. 0. -1.59858027e-03 -9.00624506e-03
      -5.88298310e-03 -1.06717991e-02 0. -9.96071473e-03 0.
      -1.52211706e-03 -5.08666039e-04 -9.00624506e-03 -5.83670195e-03
      -1.76946842e-03 -5.29491482e-03 0. -5.63015370e-03 0.
      -4.74396907e-03 -1.58535200e-03 -5.83670195e-03 -1.56367221e-03 0.
      0. 0. 1.90250890e-03 0. 6.19940576e-04 2.07173784e-04
      -1.56367221e-03 5.76286577e-04 0. 0. 0. 4.76593943e-03 0.
      5.03659155e-03 3.95531906e-03 5.76286577e-04 -6.05145888e-03
      -1.20242138e-03 -3.59810353e-03 0. -5.67681342e-03 0.
      -6.05145888e-03 -3.14498972e-03 -6.05145888e-03 -1.23027689e-03
      -1.71774504e-04 -5.14014799e-04 0. -1.28551968e-03 0.
      3.69216362e-03 2.13524071e-03 -1.23027689e-03 -1.39371469e-03 0.
      0. 0. 1.21004705e-03 0. -2.83156824e-03 -2.43542343e-03
      -1.39371469e-03 -1.61690153e-02 0. 0. 0. 1.18984114e-02 0.
      8.75793956e-03 5.35793742e-03 -1.61690153e-02 -1.95037515e-03 0.
      0. 0. 2.29640072e-03 0. -4.00777487e-03 -1.33933162e-03
      -1.95037515e-03 -5.32357953e-03 0. 0. 0. 1.40155386e-02 0.
      9.92709678e-03 6.02450082e-03 -5.32357953e-03 -1.35125024e-02 0.
      0. 0. 1.31495334e-02 0. 1.26680881e-02 4.79241926e-03
      -1.35125024e-02 -1.35125024e-02 0. 0. 0. 1.07169831e-02 0.
      1.11524481e-03 3.72695213e-04 -1.35125024e-02 -5.83569892e-03 0.
      0. 0. 1.31495334e-02 0. 1.28606660e-02 7.63239060e-03
      -5.83569892e-03 -5.83569892e-03 0. 0. 0. 3.24568748e-02 0.
      3.21072340e-03 1.07296754e-03 -5.83569892e-03 -1.13083422e-02
      -7.52428197e-04 -2.25155219e-03 0. 9.96803772e-03 0. 0. 0.
      -1.13083422e-02 -1.13083422e-02 -1.28444238e-03 -5.16070751e-04 0.
      4.28108033e-03 0. -5.75615186e-03 -1.92360964e-03 -1.13083422e-02
      -4.99788206e-03 -8.61588633e-05 -2.57820269e-04 0. 1.05915405e-02
      0. 0. 0. -4.99788206e-03 -4.99788206e-03 -7.40333169e-04
      -2.21535983e-03 0. 1.58864316e-02 0. 0. 0. -4.99788206e-03
      -1.26758330e-02 1.45110162e-03 3.48606054e-03 0. 1.34163508e-02 0.
      -3.38719739e-03 -1.13194459e-03 -1.26758330e-02 -1.26758330e-02
      -1.28407893e-03 -3.84245371e-03 0. -1.30665721e-04 0.
      -2.03231839e-03 -6.79166755e-04 -1.26758330e-02 -4.29354375e-03
      4.07398446e-04 1.21909159e-03 0. 1.64910909e-02 0. 0. 0.
      -4.29354375e-03 -6.13270095e-03 3.50303453e-04 1.04824151e-03 0.
      2.52997666e-03 0. 0. 0. -6.13270095e-03 -1.18818255e-02
      -3.32898955e-04 -9.96160437e-04 0. -1.44032191e-03 0. 0. 0.
      -1.18818255e-02 -1.18818255e-02 -6.63584040e-04 -1.98568916e-03 0.
      -5.56386122e-03 0. -5.66691300e-03 -2.22859718e-03 -1.18818255e-02
      -4.66400990e-03 2.55526102e-04 7.64631492e-04 0. 3.45942611e-03 0.
      0. 0. -4.66400990e-03 -6.95202360e-03 0. 0. 0. 0. 0. 0. 0.
      -6.95202360e-03 -1.09925810e-02 -9.28965048e-04 -2.77981325e-03 0.
      4.81107680e-04 0. -4.20453865e-03 -1.40508625e-03 -1.09925810e-02
      -1.09925810e-02 -5.26923360e-03 -1.09925810e-02 0. 1.40762786e-05
      0. -4.03513713e-03 -1.34847406e-03 -1.09925810e-02 -5.99060999e-03
      -3.84115883e-05 -1.14942137e-04 0. 5.19619556e-03 0. 0. 0.
      -5.99060999e-03 -6.04225229e-03 -4.53680288e-04 -1.35758449e-03 0.
      5.19619556e-03 0. 0. 0. -6.04225229e-03 -1.27328848e-02
      -4.46359906e-03 -1.13261044e-02 0. 1.50842068e-03 0.
      -1.28515309e-03 -4.29475622e-04 -1.27328848e-02 -1.02665955e-02
      -1.31138868e-03 -3.92416306e-03 0. -5.81835536e-03 0.
      -5.75965270e-03 -1.92477973e-03 -1.02665955e-02 -2.74687260e-03
      -4.31605527e-04 -1.29152846e-03 0. 4.19036625e-03 0. 0. 0.
      -2.74687260e-03 -1.46454852e-02 -4.01612015e-05 -1.20177618e-04 0.
      -1.31409829e-02 0. -8.22807604e-04 -2.74968566e-04 -1.46454852e-02
      -1.25919674e-02 -6.12435164e-04 -1.83263223e-03 0. -4.77155438e-03
      0. -3.42380791e-03 -1.14417938e-03 -1.25919674e-02 -1.25919674e-02
      -3.11056711e-03 -9.30800010e-03 0. -2.50595692e-03 0.
      -3.81765445e-03 -1.27579470e-03 -1.25919674e-02 -1.28995609e-02 0.
      0. 0. -7.06068426e-03 0. -4.89115482e-04 -1.63454213e-04
      -1.28995609e-02 -1.58481151e-02 -1.57276008e-04 -4.70629806e-04 0.
      -8.48868513e-04 0. -2.93469289e-04 -9.80725308e-05 -1.58481151e-02
      -1.17203817e-02 -6.38403185e-03 -1.15801999e-02 0. -5.24710352e-03
      0. -3.25670210e-03 -1.08833262e-03 -1.17203817e-02 -1.01007652e-02
      -4.16846154e-03 -9.52849910e-03 0. -5.24710352e-03 0.
      -2.88283010e-03 -9.63393191e-04 -1.01007652e-02 -1.22930631e-02
      -2.39251507e-03 -7.15929270e-03 0. -8.52210098e-04 0. 0. 0.
      -1.22930631e-02 -9.31287371e-03 -6.20422047e-03 -8.11003055e-03 0.
      -4.91060968e-03 0. -1.45055226e-03 -4.84750257e-04 -9.31287371e-03
      -1.46999760e-02 -8.84232391e-03 -1.06305014e-02 0. -4.47770115e-03
      0. -2.51386897e-03 -8.40093067e-04 -1.46999760e-02 -5.75076882e-03
      -2.04091193e-03 -6.10718224e-03 0. -3.15580680e-03 0.
      -3.83575936e-03 -1.28184480e-03 -5.75076882e-03 -1.03765056e-02
      -1.42153609e-03 -4.25376091e-03 0. -2.10467214e-03 0.
      -6.65324181e-03 -2.22339784e-03 -1.03765056e-02 -1.17594125e-02
      -5.54290134e-04 -1.65864639e-03 0. -8.34724680e-03 0.
      -8.31854995e-03 -5.36343036e-03 -1.17594125e-02 -5.85755380e-03
      -1.62266113e-03 -4.85561928e-03 0. -5.62316692e-03 0.
      -4.15114174e-03 -1.38723874e-03 -5.85755380e-03 -2.50636041e-03
      -5.07517369e-04 -1.51868188e-03 0. -5.32265799e-03 0.
      5.41798957e-03 5.29387686e-03 -2.50636041e-03 -7.76444189e-03
      -2.13157269e-03 -6.37846394e-03 0. -1.03056710e-02 0.
      -5.75852999e-03 -1.92440161e-03 -7.76444189e-03 -9.78975371e-03
      -2.23447056e-03 -6.68636383e-03 0. -1.03858234e-02 0.
      -4.42603137e-03 -1.47910567e-03 -9.78975371e-03</_>
    <_>
      -1.09814359e-02 -1.15746469e-03 -3.46356840e-03 0. -2.61120126e-03
      0. -2.37118220e-03 -7.92408187e-04 -1.09814359e-02 -1.25214122e-02
      -3.60458827e-04 -8.21171154e-04 0. -7.17242583e-05 0.
      -2.57789390e-03 -9.91020235e-04 -1.25214122e-02 -8.86657927e-03
      -2.70299078e-03 -8.08837172e-03 0. -4.06228565e-03 0.
      -3.17001669e-03 -1.05936511e-03 -8.86657927e-03 -9.64480639e-03
      -6.57341443e-04 -1.65783567e-03 0. -5.24061499e-04 0.
      -2.71695363e-03 -9.68114939e-04 -9.64480639e-03 -1.21904202e-02
      -6.03600754e-04 -1.30121619e-03 0. -4.24583117e-03 0.
      -3.47686280e-03 -1.31630350e-03 -1.21904202e-02 -1.04285404e-02
      -8.78899475e-04 -2.63000512e-03 0. -6.93919777e-04 0.
      -5.10269590e-03 -1.70523219e-03 -1.04285404e-02 -9.79501102e-03
      -8.28260148e-04 -2.36750720e-03 0. -3.19303566e-04 0.
      -2.41739838e-03 -8.19192326e-04 -9.79501102e-03 -8.07370432e-03
      -1.51339662e-03 -4.52866033e-03 0. 2.91151297e-03 0.
      -3.08740861e-03 -1.11724832e-03 -8.07370432e-03 -8.09688028e-03
      -2.45085335e-03 -6.75764913e-03 0. -6.56643277e-03 0.
      -8.15911312e-03 -3.06599704e-03 -8.09688028e-03 -4.46758326e-03
      -1.55532814e-03 -3.37174162e-03 0. -8.60748172e-04 0.
      -3.57263302e-03 -2.08048150e-03 -4.46758326e-03 -8.38205684e-03
      -2.24529533e-03 -6.29182719e-03 0. -2.81293906e-04 0.
      -4.35863202e-03 -1.45657931e-03 -8.38205684e-03 -3.31315259e-03
      -6.21368410e-04 -1.51159510e-03 0. 1.22186320e-03 0.
      -1.28670398e-03 -5.08883211e-04 -3.31315259e-03 -4.41360753e-03
      -5.43972536e-04 -1.62777188e-03 0. -4.58778674e-03 0.
      -3.97261884e-03 -1.91420398e-03 -4.41360753e-03 -5.02414536e-03
      -2.29060976e-03 -4.48051980e-03 0. -9.55379626e-04 0.
      -2.75180722e-03 -9.19607468e-04 -5.02414536e-03 -2.27551046e-03
      -2.30848236e-04 -6.90785178e-04 0. -1.36357511e-03 0.
      -7.05394545e-04 -2.35730826e-04 -2.27551046e-03 -2.72855931e-03
      -3.08187504e-04 -9.22213250e-04 0. 4.09367448e-03 0.
      -9.69692483e-04 -3.24054825e-04 -2.72855931e-03 -5.17720636e-03
      -2.89518060e-03 -4.33589658e-03 0. 1.07177312e-03 0.
      -7.34603847e-04 -2.45491887e-04 -5.17720636e-03 -5.42813074e-03
      3.32971162e-04 1.07719447e-03 0. 6.17852109e-03 0. -9.68143751e-04
      -3.66634893e-04 -5.42813074e-03 -2.14492483e-03 4.77043795e-05
      1.42749996e-04 0. 1.81932317e-03 0. -5.05271659e-04
      -1.68853090e-04 -2.14492483e-03 -1.66922470e-03 4.33967827e-04
      1.29859743e-03 0. 9.92981996e-03 0. -5.64404065e-04
      -1.88614373e-04 -1.66922470e-03 -7.19560916e-03 1.13610015e-03
      3.03752278e-03 0. 1.38677261e-03 0. 9.62774735e-04 3.15868121e-04
      -7.19560916e-03 -1.47045683e-03 -2.03111136e-04 -6.07784546e-04 0.
      2.34888191e-03 0. 2.30675074e-03 7.58721260e-04 -1.47045683e-03
      -1.75426994e-03 2.61790439e-04 7.83377036e-04 0. 7.81042781e-03 0.
      1.75625214e-03 5.86908485e-04 -1.75426994e-03 -1.31161266e-03
      -8.14087252e-05 -2.43605944e-04 0. 3.89188086e-03 0.
      3.31081240e-03 1.10641518e-03 -1.31161266e-03 -1.43264572e-03
      -3.96394986e-04 -1.09968963e-03 0. 6.61646249e-03 0.
      2.13726237e-03 6.41812629e-04 -1.43264572e-03 -1.53604825e-03
      -4.00310382e-04 -1.09968963e-03 0. 3.94242117e-03 0.
      3.94242117e-03 3.14472173e-03 -1.53604825e-03 -1.53942325e-03
      -3.22202322e-05 -9.64152277e-05 0. 6.12767320e-03 0.
      3.20312614e-03 1.07042841e-03 -1.53942325e-03 -1.31201243e-03
      -5.37003943e-05 -1.60692056e-04 0. 4.85481182e-03 0.
      5.02261799e-03 2.68584909e-03 -1.31201243e-03 -1.68565265e-03
      -1.55367263e-04 -4.64918092e-04 0. 2.72577652e-03 0.
      2.72577652e-03 1.54117274e-03 -1.68565265e-03 -1.78905518e-03
      -7.54379493e-04 -1.35269656e-03 0. 2.25105765e-03 0.
      1.20687031e-03 4.03315877e-04 -1.78905518e-03 -1.00778032e-03
      -1.30709213e-05 -3.91131834e-05 0. 3.95454839e-03 0.
      4.07847296e-03 2.79736193e-03 -1.00778032e-03 -6.17518509e-03
      -5.09716058e-03 -5.09716058e-03 0. 4.07847296e-03 0.
      4.07847296e-03 1.63229392e-03 -6.17518509e-03 -1.86639151e-03
      -1.06360496e-03 -1.53343542e-03 0. 3.02081206e-03 0. 0. 0.
      -1.86639151e-03 -1.96979404e-03 -9.89691689e-05 -2.96153506e-04 0.
      -1.42964860e-03 0. 0. 0. -1.96979404e-03 -4.84258821e-03
      -1.64291763e-03 -3.96021409e-03 0. 8.51019099e-03 0.
      5.62468544e-03 1.87967648e-03 -4.84258821e-03 -4.66129510e-03
      -6.08820468e-03 -7.31841289e-03 0. -2.27433722e-03 0.
      -3.50764045e-03 -1.17219181e-03 -4.66129510e-03 -2.54698703e-03
      -3.56976889e-05 -1.06820691e-04 0. -2.21403083e-03 0. 0. 0.
      -2.54698703e-03 -1.57551456e-03 -7.79321766e-04 -2.33201892e-03 0.
      -6.84969127e-03 0. -6.12133241e-04 -2.04564538e-04 -1.57551456e-03
      -2.56519765e-03 -1.55698182e-03 -3.82224610e-03 0. -1.88652799e-03
      0. -1.07035786e-03 -3.57694778e-04 -2.56519765e-03 -3.90357594e-03
      -3.82224610e-03 -3.82224610e-03 0. -6.23494107e-03 0.
      -4.28493321e-03 -1.43195176e-03 -3.90357594e-03 -1.63919770e-03
      -5.03098301e-04 -1.50545686e-03 0. -1.87184336e-03 0.
      -4.64794488e-04 -1.55326386e-04 -1.63919770e-03 -5.09757549e-03
      -2.64390546e-04 -7.91155442e-04 0. -6.79105567e-03 0.
      3.12457862e-03 2.69000302e-03 -5.09757549e-03 -5.05627086e-03
      -2.35579349e-03 -3.98029434e-03 0. -4.37723706e-03 0.
      -4.50267363e-03 -2.69570993e-03 -5.05627086e-03 -1.14264507e-02
      -8.60045315e-04 -2.57358234e-03 0. -9.46687348e-03 0.
      9.81347752e-04 1.10578454e-04 -1.14264507e-02 -1.10415006e-02
      -5.54338144e-03 -1.06029194e-02 0. -1.05386581e-02 0.
      -3.24076228e-03 -1.21790043e-03 -1.10415006e-02 -1.12645468e-02
      -2.35398969e-04 -7.04407168e-04 0. -8.08162615e-04 0.
      -1.07830099e-03 -4.22209268e-04 -1.12645468e-02 -2.69606779e-03
      -3.96802410e-04 -1.18738378e-03 0. -5.41299814e-03 0.
      -5.50438126e-04 -1.83947137e-04 -2.69606779e-03 -1.11440243e-03
      1.28958793e-03 2.35501630e-03 0. 1.89988746e-03 0. -2.28876946e-04
      -7.64868018e-05 -1.11440243e-03 -1.46306837e-02 -1.95105167e-04
      -5.45336632e-04 0. 1.11259904e-03 0. -1.12847576e-03
      -4.32801957e-04 -1.46306837e-02 -1.38974860e-02 -1.62720785e-03
      -4.76194220e-03 0. 5.75834932e-03 0. -9.18892038e-04
      -3.07077862e-04 -1.38974860e-02 -1.20827171e-03 1.05081883e-03
      2.14621960e-03 0. 2.03867187e-03 0. -1.34242597e-04
      -4.48616338e-05 -1.20827171e-03 -1.10363797e-03 -5.36893075e-03
      -5.16608078e-03 0. 8.68515112e-03 0. -1.91775125e-05
      -6.40880444e-06 -1.10363797e-03 -9.54452623e-03 -3.17466655e-03
      -8.24555382e-03 0. -3.79325170e-03 0. -1.09837053e-03
      -3.67056899e-04 -9.54452623e-03 -2.80232495e-03 -6.69573725e-04
      -1.86175376e-03 0. 1.52897392e-03 0. -9.20838735e-04
      -3.07728624e-04 -2.80232495e-03 -1.06810289e-03 -1.47238874e-03
      -3.37668508e-03 0. 4.91238246e-03 0. 0. 0. -1.06810289e-03
      -4.19941032e-03 -3.33962077e-03 -3.33962077e-03 0. 5.02981571e-03
      0. 0. 0. -4.19941032e-03 -3.21868970e-03 -5.05551638e-04
      -1.51280174e-03 0. -1.50586001e-03 0. -1.05194119e-03
      -3.51540628e-04 -3.21868970e-03 -2.73375260e-03 -2.21152382e-04
      -6.61772036e-04 0. 2.51908391e-03 0. -1.21828541e-03
      -4.07130225e-04 -2.73375260e-03 -3.12653859e-03 -1.54547975e-03
      -2.56692804e-03 0. -9.43432096e-04 0. -2.56692804e-03
      -1.26833201e-03 -3.12653859e-03 -2.26359488e-03 3.36640805e-04
      1.00735936e-03 0. 8.73441517e-04 0. -2.56692804e-03
      -2.41020438e-03 -2.26359488e-03 -2.23419582e-03 -4.14411516e-05
      -1.24007478e-04 0. 1.00993074e-03 0. -1.05801935e-03
      -3.53571697e-04 -2.23419582e-03 -2.23419582e-03 8.41325615e-04
      2.51756702e-03 0. 2.42056069e-03 0. 0. 0. -2.23419582e-03
      -3.83493985e-04 3.60617705e-04 1.07910577e-03 0. -1.19223294e-03
      0. -4.44148527e-03 -4.44148527e-03 -3.83493985e-04 -5.02591487e-04
      9.60244099e-04 2.15437962e-03 0. 3.27916001e-03 0. 0. 0.
      -5.02591487e-04 -2.74208933e-03 1.27215462e-03 3.33045633e-03 0.
      9.03144479e-03 0. 1.81324533e-04 6.05954774e-05 -2.74208933e-03
      -2.46266206e-03 0. 0. 0. 5.59104001e-03 0. 3.02207540e-04
      1.00992453e-04 -2.46266206e-03 -3.83493985e-04 9.39301623e-04
      2.57912767e-03 0. 9.20350477e-03 0. 0. 0. -3.83493985e-04
      -5.02591487e-04 0. 0. 0. 5.36387274e-03 0. 0. 0. -5.02591487e-04
      -6.65176427e-04 0. 0. 0. 7.10388506e-03 0. 2.27022392e-04
      7.58668903e-05 -6.65176427e-04 -6.65176427e-04 0. 0. 0.
      6.24080049e-03 0. 6.24080049e-03 2.72407266e-03 -6.65176427e-04
      -3.83493985e-04 0. 0. 0. 7.10388506e-03 0. 0. 0. -3.83493985e-04
      -5.02591487e-04 -3.72533686e-03 -6.70381682e-03 0. -4.63016157e-04
      0. 0. 0. -5.02591487e-04 -6.65176427e-04 -2.35183586e-04
      -7.03756232e-04 0. 3.79891531e-03 0. 3.46055278e-03 1.15645886e-03
      -6.65176427e-04 -1.04185683e-03 -2.59549287e-03 -4.52146493e-03 0.
      3.79891531e-03 0. 3.79891531e-03 1.61520625e-03 -1.04185683e-03
      -3.83493985e-04 -1.87008583e-03 -4.52146493e-03 0. 1.09462568e-03
      0. 3.08704143e-03 1.03163754e-03 -3.83493985e-04 -5.56402956e-04
      -7.26583414e-03 -7.26583414e-03 0. -6.04252191e-03 0.
      3.79891531e-03 3.51524958e-03 -5.56402956e-04 -2.54235580e-03
      -1.70470483e-03 -3.88599024e-03 0. 4.97931335e-03 0.
      3.06322123e-03 1.02367753e-03 -2.54235580e-03 -4.32393607e-03
      -1.88908132e-03 -5.64018590e-03 0. -3.74227203e-03 0.
      -2.33631744e-03 -7.80756236e-04 -4.32393607e-03 -8.86095280e-04
      -3.91877396e-03 -8.45431536e-03 0. 3.20783281e-03 0.
      5.05289994e-03 5.18065970e-03 -8.86095280e-04 -2.86646513e-03
      -5.85251441e-03 -6.48943381e-03 0. -3.21297697e-03 0.
      -2.02236511e-03 -6.75838441e-04 -2.86646513e-03 -2.35977070e-03
      -2.09367927e-03 -3.15182982e-03 0. -4.82427469e-03 0.
      -1.79844256e-03 -6.01007894e-04 -2.35977070e-03 -1.87870499e-03
      -3.07890424e-03 -3.72306281e-03 0. -4.92384518e-03 0.
      -1.00348983e-03 -3.35349148e-04 -1.87870499e-03 -1.92529883e-03
      -3.65055515e-03 -4.28608339e-03 0. -6.11404283e-03 0.
      -2.18766229e-03 -1.49187690e-03 -1.92529883e-03 -1.12240447e-03
      -1.56304776e-03 -4.20756126e-03 0. -7.47322477e-03 0.
      -1.68300210e-03 -8.46502197e-04 -1.12240447e-03 -3.13691562e-03
      -1.45014236e-03 -4.20914544e-03 0. -4.56318958e-03 0.
      -3.33564728e-03 -1.11471536e-03 -3.13691562e-03 -7.87638593e-03
      -1.19469152e-03 -3.57496715e-03 0. -1.16505744e-02 0.
      3.30928393e-04 3.40877799e-03 -7.87638593e-03 -1.26184092e-03
      -1.53661892e-03 -4.59814165e-03 0. -8.44759494e-03 0.
      -1.73826260e-03 -5.80897322e-04 -1.26184092e-03 -2.59003951e-03
      -2.19388166e-03 -5.51904878e-03 0. -8.44759494e-03 0.
      -3.25252814e-03 -1.08693796e-03 -2.59003951e-03 -1.19946888e-02 0.
      0. 0. -9.84488893e-03 0. 0. 0. -1.19946888e-02 -1.94256671e-03
      2.74939113e-04 8.22719419e-04 0. 2.91328481e-03 0. 0. 0.
      -1.94256671e-03 -4.87572560e-03 1.13723618e-04 3.40303144e-04 0.
      -3.97953345e-03 0. 0. 0. -4.87572560e-03 0. -6.40496984e-03
      -4.81891306e-03 0. 2.91328481e-03 0. 0. 0. 0. -1.62964439e-04
      3.13960481e-04 9.39485675e-04 0. 3.08481813e-03 0. 0. 0.
      -1.62964439e-04 -1.92477694e-03 -1.39505218e-03 -4.17451235e-03 0.
      5.45650348e-03 0. -6.75870804e-04 -2.25864176e-04 -1.92477694e-03
      -2.71607365e-04 -2.53765751e-03 -2.41050543e-03 0. 2.12938199e-03
      0. 0. 0. -2.71607365e-04 -5.95233031e-03 -7.59039819e-03
      -7.62593234e-03 0. 4.20919945e-03 0. -3.22178681e-03
      -1.65913894e-03 -5.95233031e-03 -1.67608075e-03 -1.82581961e-03
      -3.18976841e-03 0. 3.81631777e-03 0. -1.32905156e-03
      -4.44145757e-04 -1.67608075e-03 -1.46556098e-03 -2.51340470e-03
      -2.73705367e-03 0. 4.70747799e-03 0. -4.99499089e-04
      -1.66923826e-04 -1.46556098e-03 -4.91920812e-03 -3.46028712e-03
      -6.33046357e-03 0. -9.98189440e-04 0. -2.77033448e-03
      -3.31835193e-03 -4.91920812e-03 -1.11299986e-02 -8.93474091e-03
      -1.04929795e-02 0. -4.43212848e-05 0. -3.09956446e-03
      -2.12860224e-03 -1.11299986e-02 -1.32533105e-03 -6.52415620e-04
      -1.95226865e-03 0. -1.30051211e-03 0. -2.02523451e-03
      -6.76798052e-04 -1.32533105e-03 -3.80101381e-04 5.97473816e-04
      1.78787007e-03 0. -5.60632507e-05 0. -3.03667528e-03
      -2.03280197e-03 -3.80101381e-04 -9.94472858e-03 -2.56478949e-03
      -6.40870305e-03 0. -8.10997654e-03 0. -8.22340604e-03
      -3.76250315e-03 -9.94472858e-03 -6.35082088e-03 -5.21833659e-04
      -1.56151480e-03 0. 2.48601753e-03 0. -9.05635208e-03
      -4.23497288e-03 -6.35082088e-03 0. 6.02820073e-04 1.80386787e-03
      0. -5.63285255e-04 0. -3.77883250e-03 -1.29316619e-03 0. 0.
      4.92710155e-04 1.47437677e-03 0. 2.81111081e-03 0. 0. 0. 0.
      -7.64665939e-03 5.14872139e-04 1.54069404e-03 0. -5.63285255e-04
      0. -1.08852712e-02 -8.72894656e-03 -7.64665939e-03 0.
      5.91299671e-04 1.76939426e-03 0. 1.43983169e-03 0. -2.46392097e-03
      -8.23399052e-04 0. 0. 2.85965158e-04 8.55716877e-04 0.
      1.02448743e-02 0. 0. 0. 0. 0. 0. 0. 0. 5.08897938e-03 0. 0. 0. 0.
      0. 1.69445178e-04 5.07044489e-04 0. 1.02839982e-02 0. 0. 0. 0. 0.
      0. 0. 0. 5.03954384e-03 0. 0. 0. 0. 0. 0. 0. 0. 6.96488190e-03 0.
      0. 0. 0. 0. -1.82897272e-03 -4.76986868e-03 0. -2.23494787e-03 0.
      0. 0. 0. 0. -3.32191412e-04 -9.94039699e-04 0. 5.23707597e-03 0.
      0. 0. 0. 0. -4.76986868e-03 -4.76986868e-03 0. -4.76986868e-03 0.
      0. 0. 0. 0. -2.43839691e-03 -3.39935347e-03 0. -1.48451328e-03 0.
      1.34735298e-03 4.50262858e-04 0. 0. -4.07874724e-03
      -7.64238462e-03 0. -3.74409370e-04 0. 4.82033892e-03
      4.34625940e-03 0. 0. -3.65160615e-03 -4.47214441e-03 0.
      -4.23308695e-03 0. 9.26689536e-05 3.09684146e-05 0. 0.
      -6.97092339e-03 -9.01764166e-03 0. -2.80381320e-03 0.
      4.82033892e-03 2.64652260e-03 0. 0. -2.79245130e-03
      -5.85038913e-03 0. 4.09674831e-04 0. 4.38425504e-03 2.32773507e-03
      0. -2.13270163e-04 -3.75299598e-03 -4.05819016e-03 0.
      -6.98788883e-03 0. 2.87918170e-04 9.62177364e-05 -2.13270163e-04
      0. -3.74796474e-03 -4.05819016e-03 0. -1.77530304e-03 0.
      4.38425504e-03 2.97521357e-03 0. -1.13174587e-03 -1.84247037e-03
      -4.00400767e-03 0. -5.52036054e-03 0. 2.97110411e-03
      9.92893358e-04 -1.13174587e-03 -2.25741824e-04 -3.98002844e-03
      -4.50606737e-03 0. -7.29230652e-03 0. -1.09925051e-03
      -3.67350207e-04 -2.25741824e-04 -3.22488304e-05 -4.51653410e-04
      -1.35151390e-03 0. -1.03663402e-02 0. -1.64666667e-03
      -5.50287950e-04 -3.22488304e-05 -1.90865563e-03 -6.06253569e-04
      -1.81413477e-03 0. 3.40265082e-03 0. -7.75206892e-04
      -2.59060500e-04 -1.90865563e-03 -8.76752660e-03 -7.96389859e-03
      -8.31949711e-03 0. -1.03663402e-02 0. -2.39654258e-03
      -8.18907225e-04 -8.76752660e-03 -4.59168048e-04 -7.40916119e-04
      -2.21710280e-03 0. -9.88002215e-03 0. -2.01985240e-03
      -6.75000774e-04 -4.59168048e-04 -1.32191740e-03 -1.16283249e-03
      -3.47963721e-03 0. -1.02118403e-02 0. -1.49081927e-03
      -4.98206588e-04 -1.32191740e-03 -5.88072790e-03 -4.68637003e-03
      -6.62410678e-03 0. -1.02118403e-02 0. -3.04384064e-03
      -1.47684338e-03 -5.88072790e-03 -6.97366986e-03 -3.99979297e-03
      -6.77841622e-03 0. -1.02118403e-02 0. -6.50085928e-03
      -5.17875142e-03 -6.97366986e-03 -2.73270486e-03 -2.09380360e-05
      -6.26543260e-05 0. -3.20178410e-03 0. 0. 0. -2.73270486e-03 0.
      -2.06112675e-03 -1.97868259e-03 0. 1.76506257e-03 0. 0. 0. 0.
      -2.01687729e-03 -4.94849985e-04 -1.48077402e-03 0. -6.27276162e-03
      0. 0. 0. -2.01687729e-03 0. -5.23254508e-03 -5.46152052e-03 0.
      -4.53355815e-03 0. 0. 0. 0. -3.53948781e-05 -2.99289566e-03
      -1.87077455e-03 0. 1.81032927e-03 0. 0. 0. -3.53948781e-05
      -1.23255560e-03 -5.30253164e-03 -9.15889256e-03 0. 1.89323723e-03
      0. 1.93870638e-03 6.47885492e-04 -1.23255560e-03 0.
      -3.70419817e-03 -4.98742983e-03 0. -4.23391908e-03 0. 0. 0. 0.
      -1.15308317e-03 -1.62254386e-02 -1.90879256e-02 0. -1.74878922e-04
      0. 4.49897023e-03 1.50348060e-03 -1.15308317e-03 -1.40536833e-03
      -2.18075467e-03 -5.52374031e-03 0. -2.52795103e-03 0.
      -4.04308754e-04 -8.07770411e-04 -1.40536833e-03 -1.99080235e-03
      -4.38701268e-03 -8.07030592e-03 0. -1.14633027e-03 0.
      -2.76305713e-03 -1.51819445e-03 -1.99080235e-03 -1.47051946e-03
      -5.23513323e-03 -1.31751001e-02 0. -6.48246426e-03 0.
      3.13350116e-04 1.04719118e-04 -1.47051946e-03 -1.57654809e-03
      -1.08204447e-02 -1.29440203e-02 0. -7.42137339e-03 0.
      -2.89537385e-03 -1.78784714e-03 -1.57654809e-03 -4.59232321e-03
      -3.71955405e-03 -6.76121982e-03 0. 3.43206077e-04 0.
      -6.36072131e-03 -2.15037400e-03 -4.59232321e-03 -5.34165837e-03
      -1.86564145e-03 -3.78151587e-03 0. 1.45892613e-03 0.
      -5.45620359e-03 -3.55620869e-03 -5.34165837e-03 -2.67780363e-03
      -7.45308446e-03 -1.08131478e-02 0. -2.50413199e-03 0.
      -6.66337321e-03 -3.31103150e-03 -2.67780363e-03 -3.10323155e-03
      -1.65381411e-03 -2.38979887e-03 0. 6.28929352e-04 0.
      -5.46307676e-03 -3.76190431e-03 -3.10323155e-03 -1.51833356e-03
      -9.50142741e-04 -1.61141658e-03 0. -1.21483032e-03 0.
      -6.20790059e-03 -4.00585309e-03 -1.51833356e-03 0. 4.39796189e-04
      1.31603784e-03 0. 7.79082999e-04 0. -2.92239827e-03
      -9.76614188e-04 0. -8.34284991e-04 -1.07645185e-03 -2.53177830e-03
      0. -7.30991783e-03 0. -6.69795088e-03 -6.09813537e-03
      -8.34284991e-04 0. -2.74921774e-08 -8.23629520e-08 0.
      -3.45292827e-03 0. -5.81776863e-03 -2.26265378e-03 0. 0.
      5.43409900e-04 1.38817041e-03 0. 1.55237736e-03 0. 0. 0. 0. 0.
      -4.27249732e-04 -1.27848913e-03 0. 5.03954384e-03 0. 0. 0. 0. 0.
      2.04230382e-04 6.11135212e-04 0. -8.27440433e-03 0. 0. 0. 0. 0.
      -5.83187258e-03 -5.83187258e-03 0. -7.92328734e-04 0. 0. 0. 0. 0.
      -6.90901652e-04 -2.06743344e-03 0. 5.60068386e-03 0. 0. 0. 0. 0.
      -2.75430479e-03 -3.87523440e-03 0. -6.16807677e-03 0. 0. 0. 0. 0.
      -2.66105100e-03 -3.55753349e-03 0. 3.64744733e-03 0. 0. 0. 0. 0.
      -9.01437737e-03 -1.03603648e-02 0. -1.03603648e-02 0. 0. 0. 0. 0.
      -3.77359730e-03 -5.70049509e-03 0. -4.40024445e-03 0. 0. 0. 0. 0.
      -3.67044518e-03 -4.83778678e-03 0. 1.08524109e-03 0.
      5.65063721e-03 3.80693423e-03 0. -1.84033602e-03 -4.13152063e-03
      -7.34806526e-03 0. -7.34806526e-03 0. -3.39052203e-04
      -1.13305570e-04 -1.84033602e-03 -3.35767027e-03 -5.44688012e-03
      -7.04312511e-03 0. -9.20376391e-04 0. 1.18136674e-03
      3.94792936e-04 -3.35767027e-03 0. -3.63814179e-03 -4.29919269e-03
      0. -2.33315490e-03 0. 3.64701613e-03 1.69417495e-03 0.
      -9.07169830e-04 -1.37821119e-03 -4.12411941e-03 0. -5.76882344e-03
      0. 3.50462738e-03 1.32593373e-03 -9.07169830e-04 -7.78513553e-04
      -2.21864297e-03 -5.24296239e-03 0. -3.68903042e-03 0.
      3.16078844e-03 1.54278683e-03 -7.78513553e-04 -1.42485672e-03
      -1.20561365e-02 -1.23456996e-02 0. -1.47806173e-02 0.
      2.65029562e-03 2.90451641e-03 -1.42485672e-03 -1.69865799e-03
      -1.25401630e-03 -3.61563731e-03 0. -3.42528266e-03 0.
      9.79121425e-04 3.27206682e-04 -1.69865799e-03 -4.64567961e-03
      -3.97712784e-03 -6.92996522e-03 0. -8.30913056e-03 0.
      -2.13529286e-03 -7.13577610e-04 -4.64567961e-03 -2.33766763e-03
      -7.35873030e-03 -9.71750543e-03 0. -4.72367695e-03 0.
      2.84324889e-03 4.82849497e-03 -2.33766763e-03 -4.44299588e-03
      -7.00705545e-03 -8.55969265e-03 0. -9.68401600e-03 0.
      -2.58089555e-03 -8.62491375e-04 -4.44299588e-03 -5.07104397e-03
      -4.48486628e-03 -5.38509246e-03 0. -9.19182971e-03 0.
      -1.70107652e-03 -5.94771875e-04 -5.07104397e-03 -4.55629546e-03
      -2.64082500e-03 -5.16562723e-03 0. -1.20534888e-02 0.
      -5.47085237e-03 -3.62894661e-03 -4.55629546e-03 -4.07092273e-03
      -3.40957963e-03 -7.54521089e-03 0. -1.01755848e-02 0.
      -2.57398654e-03 -8.94690806e-04 -4.07092273e-03 -2.13004579e-03
      -2.60521495e-03 -6.47933735e-03 0. -1.49005149e-02 0.
      -5.89036522e-03 -1.96845667e-03 -2.13004579e-03 -4.06013802e-04
      -3.98909819e-04 -1.19368581e-03 0. -1.85098860e-03 0. 0. 0.
      -4.06013802e-04 0. -1.65255612e-03 -3.59355239e-03 0.
      -6.17686706e-03 0. 0. 0. 0. -3.93394730e-04 -3.30706447e-04
      -9.89595894e-04 0. -2.29878258e-03 0. 0. 0. -3.93394730e-04 0.
      -2.36600870e-03 -3.67216417e-03 0. -1.24108279e-02 0. 0. 0. 0. 0.
      -1.13855791e-03 -2.47618253e-03 0. -3.92586971e-03 0. 0. 0. 0.
      -1.20644749e-03 -5.77219436e-03 -1.38952043e-02 0. -5.78123983e-03
      0. 9.86351515e-04 3.29622213e-04 -1.20644749e-03 0.
      -3.10767721e-03 -5.85380662e-03 0. -5.95746189e-03 0. 0. 0. 0.
      -9.66992346e-04 -9.32047050e-03 -1.69006325e-02 0. -7.86180422e-03
      0. 0. 0. -9.66992346e-04 -2.07643979e-03 -7.24166771e-03
      -1.22588677e-02 0. -4.46959538e-03 0. -1.68330182e-04
      -5.62527421e-05 -2.07643979e-03 -8.79891682e-04 -8.97971913e-03
      -1.19600622e-02 0. -6.99963374e-03 0. -1.45574461e-03
      -4.86484147e-04 -8.79891682e-04 -2.27356772e-03 -7.21947057e-03
      -1.26753282e-02 0. -4.21585515e-03 0. 0. 0. -2.27356772e-03
      -1.68117881e-03 -5.29134925e-03 -1.34264454e-02 0. -5.46868145e-03
      0. 0. 0. -1.68117881e-03 -1.16212573e-03 -7.76846753e-03
      -1.30425747e-02 0. -3.60977976e-03 0. -1.87165278e-03
      -6.37564226e-04 -1.16212573e-03 -2.00237823e-03 -2.29205773e-03
      -6.26037316e-03 0. -9.61045094e-04 0. -2.18556891e-03
      -7.76243338e-04 -2.00237823e-03 -8.63229565e-04 -5.11808926e-03
      -1.35953985e-02 0. 1.47913164e-03 0. -3.23969143e-04
      -1.08264794e-04 -8.63229565e-04 -5.47806686e-03 -4.83299885e-03
      -3.08070122e-03 0. -2.26804661e-03 0. -5.02165349e-04
      -1.80441304e-04 -5.47806686e-03 -4.03545843e-03 -5.53314807e-03
      -7.75302574e-03 0. -1.57609500e-03 0. -3.34894541e-03
      -1.11915881e-03 -4.03545843e-03 0. -1.09503954e-03 -3.27677629e-03
      0. -2.94337049e-03 0. -1.41659577e-03 -4.73401451e-04 0.
      -2.60706246e-03 -3.97204049e-03 -4.27262392e-03 0. -1.57609500e-03
      0. -6.30014285e-04 -2.10539729e-04 -2.60706246e-03 -2.09375619e-04
      -1.34583365e-03 -4.02724789e-03 0. -2.74169352e-03 0. 0. 0.
      -2.09375619e-04 0. -3.44170730e-05 -1.02988612e-04 0.
      -4.48694313e-03 0. 0. 0. 0. 0. -2.09930609e-03 -4.22563590e-03 0.
      8.13908176e-04 0. 0. 0. 0. 0. -4.06500913e-04 -1.21640100e-03 0.
      -7.04331091e-03 0. 0. 0. 0. 0. -4.22563590e-03 -4.22563590e-03 0.
      -3.06156045e-03 0. 0. 0. 0. 0. -2.62156175e-03 -3.47982417e-03 0.
      3.41923255e-03 0. 0. 0. 0. 0. -3.83299659e-03 -8.18384346e-03 0.
      -7.90035911e-03 0. 0. 0. 0. 0. -2.72982707e-03 -5.13165165e-03 0.
      1.29047164e-03 0. 0. 0. 0. 0. -6.63100323e-03 -8.18384346e-03 0.
      -8.18384346e-03 0. 0. 0. 0. -5.37846354e-04 -3.66225280e-03
      -6.01035962e-03 0. -6.17841166e-03 0. -2.69353186e-04
      -9.00133455e-05 -5.37846354e-04 -1.66713446e-03 -2.64740898e-03
      -6.73894491e-03 0. 4.00847243e-03 0. -1.88547256e-03
      -6.30093447e-04 -1.66713446e-03 -7.68351965e-05 -4.75252699e-03
      -8.01052246e-03 0. -7.99293444e-03 0. -1.61611941e-04
      -5.40080109e-05 -7.68351965e-05 -1.05215039e-03 -1.43189915e-02
      -1.86678916e-02 0. -8.39772541e-03 0. -1.46614737e-03
      -4.89961938e-04 -1.05215039e-03 -8.40600231e-04 -1.61909487e-03
      -4.19153227e-03 0. -4.00728453e-03 0. 1.47000060e-03
      4.91249550e-04 -8.40600231e-04 -2.45334115e-04 -6.58827135e-03
      -9.38948430e-03 0. -8.88875779e-03 0. 4.33484372e-03
      3.90962046e-03 -2.45334115e-04 -1.43384084e-03 -6.71256892e-03
      -1.09038735e-02 0. -8.73359665e-03 0. -1.46904169e-03
      -6.23869128e-04 -1.43384084e-03 -8.90766038e-04 -8.28435551e-03
      -9.63140093e-03 0. -9.90810711e-03 0. 3.51141300e-03
      2.95088906e-03 -8.90766038e-04 -2.02022886e-04 -7.07629556e-03
      -9.02786013e-03 0. -1.16476659e-02 0. 3.86858522e-03
      2.03313096e-03 -2.02022886e-04 -5.18868328e-04 -3.73339141e-03
      -6.61331462e-03 0. -1.11951409e-02 0. -4.97598921e-05
      -1.66288592e-05 -5.18868328e-04 0. -4.46302211e-03 -6.88445941e-03
      0. -1.21917520e-02 0. 4.49538091e-03 3.64483474e-03 0. 0.
      -3.04502260e-04 -9.11183422e-04 0. -7.82280043e-03 0.
      1.94817409e-03 6.51047274e-04 0. -4.26203507e-04 -4.41973010e-04
      -1.32254674e-03 0. -1.31429825e-02 0. -4.43029043e-04
      -1.48052539e-04 -4.26203507e-04 -1.81014562e-04 -2.71276291e-03
      -8.11762083e-03 0. -2.03113239e-02 0. -6.59470854e-04
      -2.20383590e-04 -1.81014562e-04 0. 0. 0. 0. -1.51495449e-02 0. 0.
      0. 0. 0. -9.76176176e-04 -2.92109139e-03 0. -2.03113239e-02 0. 0.
      0. 0. -1.12128328e-04 -4.00885736e-04 -1.19959831e-03 0.
      -2.73122243e-03 0. 0. 0. -1.12128328e-04 0. -1.18147919e-03
      -3.53542645e-03 0. -1.03361784e-02 0. 0. 0. 0. 5.61160268e-03
      -5.41163026e-04 -1.77807070e-03 0. 2.48170015e-03 0. 0. 0.
      5.61160268e-03 0. -1.79360062e-03 -3.94414365e-03 0.
      -1.03361784e-02 0. 0. 0. 0. 0. -2.30778288e-03 -5.07488009e-03 0.
      -6.45580236e-03 0. 0. 0. 0. -4.96970533e-05 -5.89806028e-03
      -1.39719937e-02 0. -8.74164421e-03 0. 0. 0. -4.96970533e-05 0.
      -2.42471625e-03 -4.77195904e-03 0. -8.53142329e-03 0. 0. 0. 0. 0.
      -5.52340830e-03 -1.24411294e-02 0. -9.71107930e-03 0. 0. 0. 0.
      -2.67154770e-03 -8.86952598e-03 -1.46043375e-02 0. -8.63848347e-03
      0. 0. 0. -2.67154770e-03 -2.56632594e-03 -3.82041093e-03
      -9.53264721e-03 0. -3.41005786e-03 0. 0. 0. -2.56632594e-03
      -9.12456380e-05 -4.21869475e-03 -9.09632910e-03 0. -8.06917343e-03
      0. 0. 0. -9.12456380e-05 -6.22236403e-04 -6.66267192e-03
      -7.97143299e-03 0. 1.18014135e-03 0. 0. 0. -6.22236403e-04
      -1.84278912e-03 -6.66576531e-03 -1.10702440e-02 0. -6.16083125e-05
      0. -5.01950963e-05 -1.67743201e-05 -1.84278912e-03 -2.35750759e-03
      -4.60029114e-03 -3.53189930e-03 0. 1.22129521e-03 0.
      -8.36584950e-05 -2.79571977e-05 -2.35750759e-03 -1.03076280e-03
      -6.25123549e-03 -6.34105690e-03 0. 4.97640483e-03 0. 0. 0.
      -1.03076280e-03 -2.23000592e-04 -1.43305724e-03 -3.21084587e-03 0.
      3.48913041e-03 0. 0. 0. -2.23000592e-04 -6.22389605e-03
      -5.55539550e-03 -3.75375338e-03 0. -3.60729545e-03 0.
      -2.48785247e-04 -8.31396537e-05 -6.22389605e-03 -1.01062190e-03
      -7.06804160e-04 -2.11502751e-03 0. -5.38488990e-03 0. 0. 0.
      -1.01062190e-03 -1.01062190e-03 -8.90901210e-05 -2.66592251e-04 0.
      3.56506207e-03 0. 0. 0. -1.01062190e-03 -1.44374542e-04
      -4.75543179e-03 -5.58779994e-03 0. -5.04752528e-03 0. 0. 0.
      -1.44374542e-04 0. -5.29355893e-04 -1.58402859e-03 0.
      3.62219266e-03 0. 0. 0. 0. 0. -2.21882365e-03 -4.57365345e-03 0.
      -1.72401103e-03 0. 0. 0. 0. 0. -1.82429934e-03 -3.62865324e-03 0.
      3.00839217e-03 0. 0. 0. 0. 0. -8.00949801e-03 -1.02560986e-02 0.
      -5.21655520e-03 0. 0. 0. 0. 0. -1.69739383e-03 -4.75263782e-03 0.
      9.74410912e-04 0. 0. 0. 0. 0. -4.96465387e-03 -7.90326204e-03 0.
      -7.71797961e-03 0. 0. 0. 0. 0. -3.56899598e-03 -7.36108795e-03 0.
      -3.75434989e-04 0. 0. 0. 0. 0. -6.99824328e-03 -8.35723896e-03 0.
      -8.35723896e-03 0. 0. 0. 0. 0. -2.79852585e-03 -8.21921043e-03 0.
      -8.52381065e-03 0. 0. 0. 0. -2.05283955e-04 -6.39347686e-03
      -1.21843144e-02 0. -1.32437032e-02 0. -2.24876887e-04
      -7.51500920e-05 -2.05283955e-04 0. -3.75406374e-03 -1.02107404e-02
      0. -1.24828843e-02 0. 0. 0. 0. 0. -1.08705964e-02 -1.13746142e-02
      0. -1.54174054e-02 0. -3.21252774e-05 -1.07357291e-05 0.
      -3.02713277e-04 -8.48474074e-03 -1.00415833e-02 0. -1.15432385e-02
      0. -6.11013209e-04 -2.04190408e-04 -3.02713277e-04 -1.13769100e-04
      -5.50733367e-03 -8.33213888e-03 0. -4.82316595e-03 0.
      4.89291968e-03 3.29227024e-03 -1.13769100e-04 -3.34436481e-04
      -6.71147602e-03 -9.75682214e-03 0. -1.57110412e-02 0.
      -1.48902138e-04 -4.97606015e-05 -3.34436481e-04 -5.00127615e-04
      -2.55754800e-03 -7.56222475e-03 0. -5.33373747e-03 0.
      4.68242867e-03 1.56478945e-03 -5.00127615e-04 -4.59251867e-04
      -1.06599007e-03 -3.18983663e-03 0. -7.73925753e-03 0.
      3.78032075e-03 1.67013530e-03 -4.59251867e-04 -1.32215861e-03 0.
      0. 0. -7.97759742e-03 0. 2.69585731e-03 9.00910527e-04
      -1.32215861e-03 -3.41370492e-03 -4.97892546e-03 -7.09362188e-03 0.
      -7.61762261e-03 0. 2.59138737e-03 1.92060997e-03 -3.41370492e-03
      -5.24783600e-03 -4.22799727e-03 -7.17239222e-03 0. -1.31154088e-02
      0. -1.46751537e-03 3.83522478e-04 -5.24783600e-03 -2.16481654e-04
      0. 0. 0. -1.07339164e-02 0. 1.00112939e-03 3.34560726e-04
      -2.16481654e-04 2.35691143e-04 0. 0. 0. -2.08125301e-02 0. 0. 0.
      2.35691143e-04 -1.51537138e-03 -3.18259670e-04 -9.52354399e-04 0.
      -1.32198473e-02 0. 4.48843837e-03 5.44968294e-03 -1.51537138e-03
      1.31404947e-03 -2.12807881e-05 -6.36802361e-05 0. -1.93557069e-02
      0. 0. 0. 1.31404947e-03 8.83099972e-04 2.69308453e-04
      8.05870455e-04 0. 6.45522377e-04 0. 3.06507363e-03 1.02429383e-03
      8.83099972e-04 0. -1.41091133e-03 -4.22197860e-03 0.
      -1.05441948e-02 0. 0. 0. 0. 3.33992823e-04 8.41457513e-04
      1.73788483e-03 0. 2.37591870e-04 0. 5.00633381e-03 3.74896638e-03
      3.33992823e-04 0. -1.13672274e-03 -2.89911032e-03 0.
      -8.64772405e-03 0. 3.42022366e-04 1.14297865e-04 0. 0.
      -2.97309482e-03 -7.02296244e-03 0. -8.30060244e-03 0. 0. 0. 0. 0.
      -3.62998946e-03 -9.82141960e-03 0. -8.85759760e-03 0. 0. 0. 0. 0.
      -1.80003862e-03 -5.32029103e-03 0. -1.74660832e-02 0. 0. 0. 0. 0.
      -3.36561585e-03 -8.94624647e-03 0. -7.31751695e-03 0. 0. 0. 0. 0.
      -3.14107724e-03 -5.36735309e-03 0. -6.81002112e-03 0. 0. 0. 0.
      -3.00183619e-05 -2.58427160e-03 -6.73204567e-03 0. -1.65956432e-03
      0. 0. 0. -3.00183619e-05 0. -2.78640934e-03 -7.64596276e-03 0.
      -6.81002112e-03 0. 0. 0. 0. 0. -1.58352125e-03 -4.33258014e-03 0.
      -1.37666753e-03 0. 0. 0. 0. -7.93853775e-04 -7.02564791e-03
      -6.80732774e-03 0. 1.95872388e-03 0. 0. 0. -7.93853775e-04
      -1.52139168e-04 -5.47817253e-05 -1.63927965e-04 0. 3.90740810e-03
      0. 0. 0. -1.52139168e-04 0. -1.54223340e-03 -4.61495062e-03 0.
      1.95872388e-03 0. 0. 0. 0. 0. 3.28578288e-04 9.83231585e-04 0.
      3.90740810e-03 0. 0. 0. 0. 0. 1.11655134e-03 2.86483183e-03 0.
      3.92913818e-03 0. 0. 0. 0. 0. -1.69280369e-03 -4.36570356e-03 0.
      -3.14400531e-03 0. 0. 0. 0. 0. 1.18854754e-04 3.55662138e-04 0.
      2.42069946e-03 0. 0. 0. 0. 0. -4.41712793e-03 -4.41712793e-03 0.
      -3.14400531e-03 0. 0. 0. 0. 0. -2.04804586e-03 -3.45726474e-03 0.
      1.37562829e-03 0. 0. 0. 0. 0. -3.54915578e-03 -8.36266018e-03 0.
      -2.84970319e-03 0. 0. 0. 0. 0. -3.12106777e-03 -5.57028782e-03 0.
      -7.19972304e-04 0. 0. 0. 0. 0. -7.14543648e-03 -9.41626076e-03 0.
      -4.37671691e-03 0. 0. 0. 0. 0. -3.80659266e-03 -7.26045063e-03 0.
      -1.55105430e-04 0. 0. 0. 0. 0. -5.60981268e-03 -1.18182926e-02 0.
      -1.00412564e-02 0. 0. 0. 0. 0. -5.45763783e-03 -7.69808283e-03 0.
      -1.50747458e-03 0. 0. 0. 0. 0. -1.28830578e-02 -1.61378663e-02 0.
      -1.61378663e-02 0. 0. 0. 0. 0. -4.76394640e-03 -1.11320261e-02 0.
      -9.64095443e-03 0. 0. 0. 0. 0. -6.98820269e-03 -9.56024602e-03 0.
      -1.57879461e-02 0. 0. 0. 0. 0. -7.97512941e-03 -9.83577222e-03 0.
      -1.21800415e-02 0. 0. 0. 0. 0. -5.94093790e-03 -9.30774026e-03 0.
      -1.51303653e-02 0. 0. 0. 0. -8.48473355e-05 -2.69274041e-03
      -8.05769116e-03 0. -1.51262190e-02 0. -4.24914979e-05
      -1.41999508e-05 -8.48473355e-05 -2.44270428e-04 -3.79246939e-03
      -8.38916376e-03 0. -7.55497301e-03 0. 7.27432128e-03
      2.97498750e-03 -2.44270428e-04 -1.21210478e-05 -2.62913364e-03
      -7.31543312e-03 0. -1.14587601e-02 0. -2.54949045e-05
      -8.51997083e-06 -1.21210478e-05 -3.48957765e-05 -6.28513051e-03
      -7.17519457e-03 0. -1.71440858e-02 0. -1.78464310e-04
      -5.96397949e-05 -3.48957765e-05 -5.26873104e-04 -4.03744308e-03
      -8.28277785e-03 0. -9.57269408e-03 0. 2.81618233e-03
      9.41121019e-04 -5.26873104e-04 -1.27642904e-03 -2.69378303e-03
      -7.57490005e-03 0. -1.19790481e-02 0. 1.63930818e-03
      2.15908932e-03 -1.27642904e-03 -1.19293536e-05 -3.42460629e-03
      -6.41620671e-03 0. -1.44873867e-02 0. 8.47018906e-04
      2.83059577e-04 -1.19293536e-05 0. -3.16062756e-03 -6.14070147e-03
      0. -1.19790481e-02 0. 4.03417228e-03 2.76728300e-03 0.
      -4.06797481e-04 -4.40405449e-04 -1.31786021e-03 0. -1.41569730e-02
      0. 3.74970515e-03 1.39245740e-03 -4.06797481e-04 9.47162334e-04
      -3.29473696e-05 -9.85911029e-05 0. -1.75420716e-02 0. 0. 0.
      9.47162334e-04 0. -1.12287723e-03 -3.36006493e-03 0.
      -1.41569730e-02 0. 4.81385086e-03 3.57205421e-03 0. 1.03214534e-03
      -1.23826512e-05 -3.70536109e-05 0. -1.54484455e-02 0.
      9.05706896e-04 3.02672066e-04 1.03214534e-03 0. 8.85022862e-04
      2.56406027e-03 0. -2.28945122e-04 0. 4.24406817e-03 1.71114935e-03
      0. 0. -7.69816143e-06 -2.30357400e-05 0. -1.04845548e-02 0.
      6.03055349e-04 2.01530507e-04 0. 0. 5.12483064e-04 1.53353903e-03
      0. -5.62771631e-04 0. 4.24406817e-03 1.77650643e-03 0. 0.
      1.18478201e-05 3.54530566e-05 0. -8.31737835e-03 0.
      -4.32934030e-04 -1.44678925e-04 0. 0. -3.18939274e-04
      -9.54386953e-04 0. -1.91456899e-02 0. 0. 0. 0. 0. -7.25498830e-04
      -2.17096694e-03 0. -8.95032845e-03 0. -3.74484749e-04
      -1.25146238e-04 0. 0. -2.93960566e-05 -8.79642175e-05 0.
      -2.00810600e-02 0. -5.24070859e-03 -1.75135292e-03 0. 0.
      -1.03628292e-04 -3.10095405e-04 0. -9.63560864e-03 0.
      -2.26772716e-03 -7.57835049e-04 0. 0. -2.16600113e-03
      -5.68041811e-03 0. -8.26791581e-03 0. -1.28867000e-03
      -4.30650893e-04 0. 0. -7.44184712e-04 -2.22688424e-03 0.
      -2.47095735e-03 0. -7.73202046e-04 -2.58390559e-04 0. 0.
      -2.95968668e-04 -8.85651098e-04 0. -8.26791581e-03 0.
      -2.95586535e-03 -1.71003398e-03 0. 0. 5.25852898e-04
      1.57355249e-03 0. -2.27902108e-03 0. -2.95586535e-03
      -1.48156332e-03 0. 0. -2.81949970e-03 -6.97325030e-03 0.
      -1.01657026e-03 0. 0. 0. 0. 0. -7.78406611e-05 -2.32923820e-04 0.
      3.50884045e-03 0. 0. 0. 0. 0. 2.84267036e-04 8.50635523e-04 0.
      -4.30933991e-03 0. -4.81051486e-03 -3.39801470e-03 0. 0.
      -5.00727911e-03 -3.36437370e-03 0. -2.32303236e-03 0. 0. 0. 0. 0.
      -6.91859517e-04 -2.07029935e-03 0. 3.30855581e-03 0. 0. 0. 0. 0.
      -3.45397415e-03 -6.05768198e-03 0. -3.36614065e-03 0. 0. 0. 0. 0.
      -3.14631499e-03 -5.00025041e-03 0. 1.35302648e-03 0. 0. 0. 0. 0.
      -1.01998579e-02 -1.05679184e-02 0. -4.49559186e-03 0. 0. 0. 0. 0.
      -2.53360625e-03 -7.09769363e-03 0. -4.60468174e-04 0. 0. 0. 0. 0.
      -5.34103392e-03 -8.19945056e-03 0. -2.76150717e-03 0. 0. 0. 0. 0.
      -5.11721754e-03 -7.60602485e-03 0. -1.50756969e-04 0. 0. 0. 0. 0.
      -1.22332461e-02 -1.84000917e-02 0. -1.17782615e-02 0. 0. 0. 0. 0.
      -5.57945110e-03 -8.89173988e-03 0. -7.06167484e-04 0. 0. 0. 0. 0.
      -7.15951808e-03 -1.28848078e-02 0. -1.36055453e-02 0. 0. 0. 0. 0.
      -7.26991100e-03 -1.43755255e-02 0. -4.53244150e-03 0. 0. 0. 0. 0.
      -1.00596640e-02 -1.07562542e-02 0. -1.10980412e-02 0. 0. 0. 0. 0.
      -8.08324758e-03 -9.91688855e-03 0. -1.16144484e-02 0. 0. 0. 0. 0.
      -3.02123441e-03 -8.25860165e-03 0. -1.46211376e-02 0. 0. 0. 0. 0.
      -6.07295055e-03 -1.01362094e-02 0. -1.24366917e-02 0. 0. 0. 0. 0.
      -5.23124915e-03 -5.97327901e-03 0. -1.46440305e-02 0. 0. 0. 0. 0.
      -2.71500368e-03 -5.91482362e-03 0. -1.13422992e-02 0. 0. 0. 0. 0.
      -4.45278222e-03 -5.24034724e-03 0. -1.83368511e-02 0. 0. 0. 0. 0.
      -5.00103598e-03 -5.48521057e-03 0. -1.25422366e-02 0. 0. 0. 0. 0.
      -2.57834443e-03 -5.22088679e-03 0. -1.74753796e-02 0. 0. 0. 0. 0.
      -1.26728637e-03 -3.79220117e-03 0. -1.72102936e-02 0.
      1.51132248e-04 5.05058706e-05 0. 0. -1.91688351e-03
      -5.73602598e-03 0. -1.36036556e-02 0. 4.98007797e-03
      3.99560342e-03 0. 0. -2.48747616e-04 -7.44347286e-04 0.
      -1.84559338e-02 0. 0. 0. 0. 0. -7.07222498e-04 -2.11627758e-03 0.
      -1.36036556e-02 0. 4.98007797e-03 2.70302012e-03 0. 0.
      -1.18155510e-03 -3.53565509e-03 0. -1.37054380e-02 0.
      3.96465370e-03 2.22202740e-03 0. 1.07380527e-03 -5.26480086e-04
      -1.57542923e-03 0. -1.43665457e-02 0. 1.86296494e-03
      6.22571737e-04 1.07380527e-03 0. -1.80668221e-03 -4.65109991e-03
      0. -1.37054380e-02 0. 3.96465370e-03 3.23678250e-03 0.
      9.71422007e-04 -3.79163167e-03 -9.02419351e-03 0. -1.26316324e-02
      0. 3.96465370e-03 2.44175969e-03 9.71422007e-04 -5.71782493e-06
      1.39252865e-03 2.60008965e-03 0. 3.58106161e-04 0. 2.23668409e-03
      7.47459533e-04 -5.71782493e-06 0. 0. 0. 0. -7.81590492e-03 0.
      -1.53264054e-03 -5.12182014e-04 0. 3.29191185e-04 5.23355731e-04
      1.56607397e-03 0. -1.84078148e-04 0. 7.42794073e-05 4.87673824e-04
      3.29191185e-04 0. 0. 0. 0. -8.61428585e-03 0. -1.93907414e-04
      1.65814316e-04 0. 0. 0. 0. 0. -1.08265644e-02 0. -5.33536915e-03
      -2.04370613e-03 0. 0. 0. 0. 0. -8.79979413e-03 0. -3.77471186e-03
      -1.26144465e-03 0. 0. 0. 0. 0. -1.15856687e-02 0. -8.31550569e-04
      -8.77092418e-04 0. 0. 0. 0. 0. -9.14393924e-03 0. -8.76040570e-03
      -4.32085618e-03 0. 0. 0. 0. 0. -7.15392688e-03 0. -3.10657546e-03
      -1.23594201e-03 0. -4.41329394e-05 5.11800812e-04 1.53150316e-03
      0. -1.52964296e-03 0. -3.04674567e-03 -1.90127851e-03
      -4.41329394e-05 0. 0. 0. 0. -6.34432537e-03 0. -1.42543102e-02
      -6.83191605e-03 0. -1.07659982e-03 -4.13684454e-03 -2.88873119e-03
      0. -1.59210386e-03 0. -8.89363978e-03 -4.56928043e-03
      -1.07659982e-03 -3.19671963e-04 2.25122945e-04 6.73656410e-04 0.
      -2.03662174e-04 0. -2.80870334e-03 -9.38619312e-04 -3.19671963e-04
      -5.32786536e-04 -2.32096878e-03 -3.94770643e-03 0. 1.09292206e-03
      0. -4.95531931e-05 -1.65598067e-05 -5.32786536e-04 -2.83471192e-03
      -1.57030975e-03 -2.35009845e-03 0. 4.87848476e-04 0.
      -1.14020947e-02 -6.01744093e-03 -2.83471192e-03 -2.83471192e-03
      -8.36356636e-03 -9.20319837e-03 0. 2.49603973e-03 0.
      -3.46872373e-04 -1.15918650e-04 -2.83471192e-03 -8.47875708e-05
      -3.65818385e-03 -5.22549078e-03 0. -2.39112647e-03 0. 0. 0.
      -8.47875708e-05 0. -5.50764473e-03 -7.72932684e-03 0.
      -3.67412530e-03 0. 0. 0. 0. -1.58866041e-03 -5.22222277e-03
      -7.14844139e-03 0. -1.35782163e-03 0. 0. 0. -1.58866041e-03
      -8.38903361e-05 -1.77459288e-02 -1.96017381e-02 0. -5.29935211e-03
      0. 0. 0. -8.38903361e-05 0. -5.13989991e-03 -8.03564582e-03 0.
      2.09668127e-04 0. 0. 0. 0. 0. -6.79085078e-03 -1.55280307e-02 0.
      -3.00062937e-03 0. 0. 0. 0. 0. -7.04644807e-03 -1.48016829e-02 0.
      -2.43059694e-04 0. 0. 0. 0. 0. -1.35630425e-02 -1.57530103e-02 0.
      -3.28284828e-03 0. 0. 0. 0. 0. -1.10681187e-02 -1.47202536e-02 0.
      -6.10740855e-03 0. 0. 0. 0. 0. -6.70990115e-03 -9.76799149e-03 0.
      -1.00729577e-02 0. 0. 0. 0. 0. -9.96035710e-03 -1.22891935e-02 0.
      -3.62861529e-03 0. 0. 0. 0. 0. -4.34169266e-03 -9.62583628e-03 0.
      -6.99477969e-03 0. 0. 0. 0. 0. -6.47624955e-03 -1.00196376e-02 0.
      -1.01581849e-02 0. 0. 0. 0. 0. -4.56842780e-03 -5.82581991e-03 0.
      -1.51546681e-02 0. 0. 0. 0. 0. -4.51040547e-03 -8.24324135e-03 0.
      -9.86163132e-03 0. 0. 0. 0. 0. -5.35616092e-03 -5.53304981e-03 0.
      -1.43503379e-02 0. 0. 0. 0. 0. -6.41021412e-03 -6.51267031e-03 0.
      -1.37104588e-02 0. 0. 0. 0. 0. -1.81763317e-03 -5.42094512e-03 0.
      -1.54954745e-02 0. 0. 0. 0. 0. -3.74024874e-03 -6.46186946e-03 0.
      -1.36105735e-02 0. 0. 0. 0. 0. -2.90673197e-04 -8.29525001e-04 0.
      -1.38022248e-02 0. 0. 0. 0. 0. -3.37483390e-04 -1.00987812e-03 0.
      -1.90743152e-02 0. 0. 0. 0. 0. -5.34081017e-04 -1.59817410e-03 0.
      -1.22433994e-02 0. 6.83487579e-03 4.79688821e-03 0. 0.
      -3.48182977e-04 -1.04189536e-03 0. -1.90782752e-02 0. 0. 0. 0. 0.
      -4.44854115e-04 -1.33117323e-03 0. -1.62933245e-02 0. 0. 0. 0.
      -1.30602684e-05 -6.81505015e-04 -2.03932286e-03 0. -1.45244049e-02
      0. 3.90215078e-03 1.41435186e-03 -1.30602684e-05 1.64589053e-03
      -2.13725748e-03 -6.39548851e-03 0. -1.44830523e-02 0.
      3.33742076e-03 2.33922875e-03 1.64589053e-03 -9.14218690e-05
      -8.36584877e-05 -2.50338111e-04 0. -1.59280337e-02 0.
      1.84505305e-03 6.16585894e-04 -9.14218690e-05 -1.07978599e-03
      -6.59074576e-04 -1.91629236e-03 0. -1.45042632e-02 0.
      2.89818645e-03 2.77628005e-03 -1.07978599e-03 2.48992094e-03 0. 0.
      0. 6.19552564e-04 0. 3.69965885e-04 1.23634221e-04 2.48992094e-03
      0. 0. 0. 0. -2.66526407e-03 0. -5.58667874e-04 9.95396913e-05 0.
      8.89964751e-04 0. 0. 0. -6.76115567e-04 0. -1.75972062e-03
      -5.88070776e-04 8.89964751e-04 0. 0. 0. 0. -2.66526407e-03 0.
      -2.26063374e-03 -5.79738640e-04 0. 0. 0. 0. 0. -9.23668314e-03 0.
      -2.82343943e-03 -1.91073702e-03 0. -4.89727419e-04 0. 0. 0.
      -5.09410445e-03 0. -1.23545276e-02 -7.66868843e-03 -4.89727419e-04
      0. 0. 0. 0. -5.40946005e-03 0. -1.61672919e-03 1.27045345e-03 0.
      -2.16238224e-03 0. 0. 0. -3.38823115e-03 0. -1.55590679e-02
      -1.10601708e-02 -2.16238224e-03 -1.51394261e-03 -6.93567999e-05
      -2.07541016e-04 0. -4.63527208e-03 0. -1.14083290e-02
      -4.21319902e-03 -1.51394261e-03 -2.96335411e-03 -1.69592316e-03
      -2.09730305e-03 0. 1.54475251e-03 0. -8.27321876e-03
      -3.44676431e-03 -2.96335411e-03 -3.32940463e-03 4.57505193e-05
      1.36904724e-04 0. -2.99287331e-03 0. -1.25162387e-02
      -7.73618277e-03 -3.32940463e-03 -4.67991969e-03 -9.59242752e-04
      -8.17376655e-04 0. 3.02268309e-04 0. -1.06661180e-02
      -6.92967977e-03 -4.67991969e-03 -3.48451268e-03 -3.52412835e-03
      -2.43881694e-03 0. 3.93724814e-03 0. -7.27586402e-03
      -2.43146601e-03 -3.48451268e-03 -3.19384714e-03 -4.77222446e-03
      -7.56173488e-03 0. 2.13466492e-03 0. -3.78197205e-04
      -1.26386862e-04 -3.19384714e-03 -5.45542920e-03 -2.38928781e-03
      -3.23654036e-03 0. 7.79185677e-03 0. -6.45395881e-03
      -6.20715925e-03 -5.45542920e-03 -5.68855088e-03 -3.99061572e-03
      -7.40150642e-03 0. 1.20374921e-03 0. -6.08328730e-03
      -3.13091488e-03 -5.68855088e-03 -2.95450212e-03 -3.41849471e-03
      -6.26681419e-03 0. 5.46908595e-05 0. 0. 0. -2.95450212e-03
      -2.61886104e-04 -7.75156822e-03 -1.58928633e-02 0. -4.77001164e-03
      0. 0. 0. -2.61886104e-04 -3.77268181e-03 -5.92895597e-03
      -1.18915737e-02 0. -1.11994380e-03 0. -1.01224426e-03
      -3.38274287e-04 -3.77268181e-03 -2.84384331e-03 -1.51331453e-02
      -1.58928633e-02 0. -4.35178075e-03 0. 0. 0. -2.84384331e-03 0.
      -9.33514256e-03 -1.28907189e-02 0. -1.22801540e-03 0. 0. 0. 0. 0.
      -1.03392163e-02 -1.35601396e-02 0. -2.54253135e-03 0. 0. 0. 0.
      -1.11289308e-04 -1.20929414e-02 -1.47336703e-02 0. -1.15203380e-03
      0. 0. 0. -1.11289308e-04 0. -6.84727076e-03 -1.12108877e-02 0.
      4.41059346e-05 0. 0. 0. 0. 0. -7.23468466e-03 -1.12858498e-02 0.
      -8.76447000e-03 0. 0. 0. 0. 0. -4.95533133e-03 -8.41290131e-03 0.
      -4.12642071e-03 0. 0. 0. 0. 0. -4.89881169e-03 -1.12858498e-02 0.
      -1.45504845e-03 0. 0. 0. 0. 0. -6.15688460e-03 -6.50682021e-03 0.
      -6.44081971e-03 0. 0. 0. 0. 0. -6.61266269e-03 -6.61266269e-03 0.
      -7.18304561e-03 0. 0. 0. 0. 0. -3.25057330e-03 -5.84642915e-03 0.
      -1.51945017e-02 0. 0. 0. 0. 0. -5.48213022e-03 -6.29538391e-03 0.
      -5.83931245e-03 0. 0. 0. 0. 0. -9.24026244e-04 -2.76503898e-03 0.
      -1.02447765e-02 0. 0. 0. 0. 0. -2.93111498e-03 -8.77101440e-03 0.
      -1.45558426e-02 0. 0. 0. 0. 0. -1.97628760e-05 -5.91378339e-05 0.
      -1.66509822e-02 0. 0. 0. 0. 0. 0. 0. 0. -8.80231522e-03 0. 0. 0.
      0. 0. 0. 0. 0. -2.31787767e-02 0. -5.12493425e-04 -1.71266729e-04
      0. 0. -5.96913858e-04 -1.78618741e-03 0. -1.78604741e-02 0. 0. 0.
      0. 0. -1.06982468e-03 -3.20131262e-03 0. -1.78604741e-02 0. 0. 0.
      0. 0. -1.62633171e-03 -4.86658607e-03 0. -1.78604741e-02 0.
